{"learner":{"attributes":{"scikit_learn":"{\"_estimator_type\": \"regressor\"}"},"feature_names":["PM2.5","PM10","NO2","CO","SO2","O3","AQI","aqi_lag_1","aqi_lag_2","aqi_lag_3","aqi_lag_24","aqi_lag_48","pm25_lag_1","pm25_lag_2","pm25_lag_3","pm25_lag_24","pm25_lag_48","aqi_roll_mean_6h","aqi_roll_mean_24h","aqi_roll_std_24h","hour_sin","hour_cos","month_sin","month_cos"],"feature_types":["float","float","float","float","float","float","float","float","float","float","float","float","float","float","float","float","float","float","float","float","float","float","float","float"],"gradient_booster":{"model":{"cats":{"enc":[],"feature_segments":[],"sorted_idx":[]},"gbtree_model_param":{"num_parallel_tree":"1","num_trees":"300"},"iteration_indptr":[0,1,2,3,4,5,6,7,8,9,10,11,12,13,14,15,16,17,18,19,20,21,22,23,24,25,26,27,28,29,30,31,32,33,34,35,36,37,38,39,40,41,42,43,44,45,46,47,48,49,50,51,52,53,54,55,56,57,58,59,60,61,62,63,64,65,66,67,68,69,70,71,72,73,74,75,76,77,78,79,80,81,82,83,84,85,86,87,88,89,90,91,92,93,94,95,96,97,98,99,100,101,102,103,104,105,106,107,108,109,110,111,112,113,114,115,116,117,118,119,120,121,122,123,124,125,126,127,128,129,130,131,132,133,134,135,136,137,138,139,140,141,142,143,144,145,146,147,148,149,150,151,152,153,154,155,156,157,158,159,160,161,162,163,164,165,166,167,168,169,170,171,172,173,174,175,176,177,178,179,180,181,182,183,184,185,186,187,188,189,190,191,192,193,194,195,196,197,198,199,200,201,202,203,204,205,206,207,208,209,210,211,212,213,214,215,216,217,218,219,220,221,222,223,224,225,226,227,228,229,230,231,232,233,234,235,236,237,238,239,240,241,242,243,244,245,246,247,248,249,250,251,252,253,254,255,256,257,258,259,260,261,262,263,264,265,266,267,268,269,270,271,272,273,274,275,276,277,278,279,280,281,282,283,284,285,286,287,288,289,290,291,292,293,294,295,296,297,298,299,300],"tree_info":[0,0,0,0,0,0,0,0,0,0,0,0,0,0,0,0,0,0,0,0,0,0,0,0,0,0,0,0,0,0,0,0,0,0,0,0,0,0,0,0,0,0,0,0,0,0,0,0,0,0,0,0,0,0,0,0,0,0,0,0,0,0,0,0,0,0,0,0,0,0,0,0,0,0,0,0,0,0,0,0,0,0,0,0,0,0,0,0,0,0,0,0,0,0,0,0,0,0,0,0,0,0,0,0,0,0,0,0,0,0,0,0,0,0,0,0,0,0,0,0,0,0,0,0,0,0,0,0,0,0,0,0,0,0,0,0,0,0,0,0,0,0,0,0,0,0,0,0,0,0,0,0,0,0,0,0,0,0,0,0,0,0,0,0,0,0,0,0,0,0,0,0,0,0,0,0,0,0,0,0,0,0,0,0,0,0,0,0,0,0,0,0,0,0,0,0,0,0,0,0,0,0,0,0,0,0,0,0,0,0,0,0,0,0,0,0,0,0,0,0,0,0,0,0,0,0,0,0,0,0,0,0,0,0,0,0,0,0,0,0,0,0,0,0,0,0,0,0,0,0,0,0,0,0,0,0,0,0,0,0,0,0,0,0,0,0,0,0,0,0,0,0,0,0,0,0,0,0,0,0,0,0,0,0,0,0,0,0,0,0,0,0,0,0,0,0,0,0,0,0],"trees":[{"base_weights":[1.38047E-1,-8.521788E1,1.1834426E2,-1.3095677E2,-3.219468E1,7.800758E1,2.1309215E2,-1.512054E2,-1.078197E2,-5.5920433E1,-3.2501073E0,5.4753452E1,1.1019329E2,1.840493E2,2.6506058E2,-1.6337944E2,-1.4023991E2,-1.1505987E2,-8.745028E1,-7.1525955E1,-4.015896E1,-1.8321638E1,1.8487732E1,3.7101788E1,7.190448E1,8.6606674E1,1.24479515E2,1.7586163E2,2.4043193E2,2.4263358E2,3.202839E2,-1.6757703E2,-1.5080228E2,-1.4265118E2,-8.4402504E1,-1.1883624E2,-8.64919E1,-9.369245E1,-5.252116E1,-7.89012E1,-4.1000027E1,-4.7907974E1,-1.0928441E1,-3.2328304E1,-6.5954866E0,9.130215E0,4.8689568E1,2.6983133E1,5.2506634E1,6.1390648E1,8.4787224E1,9.319576E1,5.0537025E1,1.2077282E2,2.0347377E2,1.5109212E2,1.9402689E2,2.3046417E2,3.1297638E2,4.2546423E2,2.3759091E2,3.078835E2,3.7123523E2,-8.831051E0,-8.124757E0,-7.6672244E0,-5.5816555E0,-7.26992E0,-6.63907E0,-4.801653E0,-6.762714E-1,-6.293061E0,-5.3849974E0,-4.687129E0,-2.507013E0,-4.9126544E0,-3.4855099E0,-3.1874866E0,-1.0504891E0,-4.2009883E0,-2.5013244E0,-2.3347828E0,-5.3419072E-2,-3.0401204E0,-1.7365061E0,-1.2681597E0,9.951195E-1,-1.9180893E0,3.1355795E-1,-4.759407E-1,1.3375839E0,-1.3515092E-2,1.6669983E0,1.9345554E0,3.8819046E0,1.5301414E0,-1.5553395E-1,3.0801733E0,1.1876619E0,2.9671545E0,4.3712854E0,4.1322527E0,8.659114E0,3.8830254E0,5.436197E0,8.051403E-1,3.6280258E0,5.6161094E0,6.9251175E0,8.859546E0,1.21851225E1,4.7536497E0,7.9964128E0,1.0011203E1,7.656395E0,1.2326181E1,9.8837805E0,1.7431694E1,1.393432E1,2.6564777E1,1.7227346E1,9.641745E0,1.2374428E1,1.6166637E1,1.3146301E1,2.6146439E1,1.796094E1],"categories":[],"categories_nodes":[],"categories_segments":[],"categories_sizes":[],"default_left":[0,0,0,0,0,0,0,0,1,0,0,0,0,1,1,0,0,0,0,0,0,0,0,0,0,0,1,0,0,0,0,0,0,1,0,0,0,0,0,0,0,0,0,0,0,1,1,0,0,1,1,0,0,0,0,0,0,0,0,0,1,0,0,0,0,0,0,0,0,0,0,0,0,0,0,0,0,0,0,0,0,0,0,0,0,0,0,0,0,0,0,0,0,0,0,0,0,0,0,0,0,0,0,0,0,0,0,0,0,0,0,0,0,0,0,0,0,0,0,0,0,0,0,0,0,0,0],"id":0,"left_children":[1,3,5,7,9,11,13,15,17,19,21,23,25,27,29,31,33,35,37,39,41,43,45,47,49,51,53,55,57,59,61,63,65,67,69,71,73,75,77,79,81,83,85,87,89,91,93,95,97,99,101,103,105,107,109,111,113,115,117,119,121,123,125,-1,-1,-1,-1,-1,-1,-1,-1,-1,-1,-1,-1,-1,-1,-1,-1,-1,-1,-1,-1,-1,-1,-1,-1,-1,-1,-1,-1,-1,-1,-1,-1,-1,-1,-1,-1,-1,-1,-1,-1,-1,-1,-1,-1,-1,-1,-1,-1,-1,-1,-1,-1,-1,-1,-1,-1,-1,-1,-1,-1,-1,-1,-1,-1],"loss_changes":[6.7496704E9,9.4210995E8,1.072033E9,9.76919E7,1.2354835E8,1.4725094E8,1.2637107E8,1.4823936E7,1.4345472E7,2.4315072E7,2.6551526E7,3.4578304E7,2.7797056E7,2.4764032E7,3.710925E7,2.756864E6,7.867136E6,7.736896E6,5.561472E6,1.1181104E7,1.11414E7,7.86052E6,9.377541E6,8.773328E6,7.841664E6,7.394544E6,1.5023744E7,2.1084288E7,4.85296E6,1.9590016E7,5.362944E6,1.78688E6,1.29696E6,1.501696E6,1.997724E6,4.948224E6,2.20616E6,2.361984E6,1.369036E6,5.909152E6,2.199029E6,6.604752E6,4.588375E6,5.079318E6,2.5399255E6,5.765854E6,2.268816E6,3.701332E6,5.835616E6,1.695504E6,4.914864E6,6.341552E6,3.64731E6,7.339648E6,2.390784E6,9.8144E6,6.829952E6,3.106464E6,9.05448E5,4.71532E6,9.160448E6,4.761536E6,2.896368E6,0E0,0E0,0E0,0E0,0E0,0E0,0E0,0E0,0E0,0E0,0E0,0E0,0E0,0E0,0E0,0E0,0E0,0E0,0E0,0E0,0E0,0E0,0E0,0E0,0E0,0E0,0E0,0E0,0E0,0E0,0E0,0E0,0E0,0E0,0E0,0E0,0E0,0E0,0E0,0E0,0E0,0E0,0E0,0E0,0E0,0E0,0E0,0E0,0E0,0E0,0E0,0E0,0E0,0E0,0E0,0E0,0E0,0E0,0E0,0E0,0E0,0E0,0E0,0E0],"parents":[2147483647,0,0,1,1,2,2,3,3,4,4,5,5,6,6,7,7,8,8,9,9,10,10,11,11,12,12,13,13,14,14,15,15,16,16,17,17,18,18,19,19,20,20,21,21,22,22,23,23,24,24,25,25,26,26,27,27,28,28,29,29,30,30,31,31,32,32,33,33,34,34,35,35,36,36,37,37,38,38,39,39,40,40,41,41,42,42,43,43,44,44,45,45,46,46,47,47,48,48,49,49,50,50,51,51,52,52,53,53,54,54,55,55,56,56,57,57,58,58,59,59,60,60,61,61,62,62],"right_children":[2,4,6,8,10,12,14,16,18,20,22,24,26,28,30,32,34,36,38,40,42,44,46,48,50,52,54,56,58,60,62,64,66,68,70,72,74,76,78,80,82,84,86,88,90,92,94,96,98,100,102,104,106,108,110,112,114,116,118,120,122,124,126,-1,-1,-1,-1,-1,-1,-1,-1,-1,-1,-1,-1,-1,-1,-1,-1,-1,-1,-1,-1,-1,-1,-1,-1,-1,-1,-1,-1,-1,-1,-1,-1,-1,-1,-1,-1,-1,-1,-1,-1,-1,-1,-1,-1,-1,-1,-1,-1,-1,-1,-1,-1,-1,-1,-1,-1,-1,-1,-1,-1,-1,-1,-1,-1],"split_conditions":[2.78E2,1.42E2,3.98E2,9.9E1,2.02E2,3.34E2,4.9091086E2,7.609677E1,1.43E2,1.735E2,9.2E1,1.2925E2,1.59E2,5.36E2,6.085E2,3.2E1,2.36E2,2.29E2,5E-1,5E-1,5E-1,1.66E2,8.660254E-1,3.12E2,3.11E2,2.24E2,5.87E2,4.44E2,5.57E2,1.2154929E-1,6.1E2,6.1E1,2.0019034E2,9.4E1,3.65E2,1.2E2,3.45E2,2.33E2,9.8E1,9.945E1,3.65E2,1.75E2,1.0975E2,8.660254E-1,8.660254E-1,3.065E2,2.4825E2,1E0,1.5075E2,4.2E2,6.085E2,3.56E2,1.9175E2,3.69E2,7.25E2,5E-1,3.7239506E1,5E-1,-2.4492937E-16,8.660254E-1,3.235E2,5E-1,2.1872347E-7,-8.831051E0,-8.124757E0,-7.6672244E0,-5.5816555E0,-7.26992E0,-6.63907E0,-4.801653E0,-6.762714E-1,-6.293061E0,-5.3849974E0,-4.687129E0,-2.507013E0,-4.9126544E0,-3.4855099E0,-3.1874866E0,-1.0504891E0,-4.2009883E0,-2.5013244E0,-2.3347828E0,-5.3419072E-2,-3.0401204E0,-1.7365061E0,-1.2681597E0,9.951195E-1,-1.9180893E0,3.1355795E-1,-4.759407E-1,1.3375839E0,-1.3515092E-2,1.6669983E0,1.9345554E0,3.8819046E0,1.5301414E0,-1.5553395E-1,3.0801733E0,1.1876619E0,2.9671545E0,4.3712854E0,4.1322527E0,8.659114E0,3.8830254E0,5.436197E0,8.051403E-1,3.6280258E0,5.6161094E0,6.9251175E0,8.859546E0,1.21851225E1,4.7536497E0,7.9964128E0,1.0011203E1,7.656395E0,1.2326181E1,9.8837805E0,1.7431694E1,1.393432E1,2.6564777E1,1.7227346E1,9.641745E0,1.2374428E1,1.6166637E1,1.3146301E1,2.6146439E1,1.796094E1],"split_indices":[7,7,7,7,7,7,7,7,1,1,12,12,12,1,1,12,11,11,23,23,23,1,23,7,7,15,1,7,10,5,11,7,11,1,11,7,11,1,12,5,11,7,12,23,23,1,1,22,15,1,1,7,1,7,1,23,19,22,22,23,1,22,19,0,0,0,0,0,0,0,0,0,0,0,0,0,0,0,0,0,0,0,0,0,0,0,0,0,0,0,0,0,0,0,0,0,0,0,0,0,0,0,0,0,0,0,0,0,0,0,0,0,0,0,0,0,0,0,0,0,0,0,0,0,0,0,0],"split_type":[0,0,0,0,0,0,0,0,0,0,0,0,0,0,0,0,0,0,0,0,0,0,0,0,0,0,0,0,0,0,0,0,0,0,0,0,0,0,0,0,0,0,0,0,0,0,0,0,0,0,0,0,0,0,0,0,0,0,0,0,0,0,0,0,0,0,0,0,0,0,0,0,0,0,0,0,0,0,0,0,0,0,0,0,0,0,0,0,0,0,0,0,0,0,0,0,0,0,0,0,0,0,0,0,0,0,0,0,0,0,0,0,0,0,0,0,0,0,0,0,0,0,0,0,0,0,0],"sum_hessian":[6.68971E5,3.88464E5,2.80507E5,2.08557E5,1.79907E5,1.96748E5,8.3759E4,1.11218E5,9.7339E4,9.8866E4,8.1041E4,1.14224E5,8.2524E4,5.3734E4,3.0025E4,5.2698E4,5.852E4,7.181E4,2.5529E4,4.9677E4,4.9189E4,4.7859E4,3.3182E4,5.6292E4,5.7932E4,3.1132E4,5.1392E4,4.6924E4,6.81E3,2.1357E4,8.668E3,3.9502E4,1.3196E4,5.6096E4,2.424E3,6.3423E4,8.387E3,2.1657E4,3.872E3,4.0009E4,9.668E3,3.8881E4,1.0308E4,2.1808E4,2.6051E4,2.5334E4,7.848E3,3.3977E4,2.2315E4,3.1902E4,2.603E4,2.6322E4,4.81E3,4.9091E4,2.301E3,1.9857E4,2.7067E4,5.991E3,8.19E2,5.71E2,2.0786E4,6.977E3,1.691E3,1.4199E4,2.5303E4,1.2389E4,8.07E2,4.3871E4,1.2225E4,2.082E3,3.42E2,3.8884E4,2.4539E4,6.991E3,1.396E3,1.8194E4,3.463E3,2.854E3,1.018E3,3.3983E4,6.026E3,8.461E3,1.207E3,1.965E4,1.9231E4,7.021E3,3.287E3,1.886E4,2.948E3,2.3952E4,2.099E3,1.8249E4,7.085E3,5.835E3,2.013E3,3.0329E4,3.648E3,1.6951E4,5.364E3,2.9579E4,2.323E3,2.5416E4,6.14E2,1.3161E4,1.3161E4,1.877E3,2.933E3,3.325E4,1.5841E4,1.395E3,9.06E2,2.707E3,1.715E4,2.3502E4,3.565E3,4.017E3,1.974E3,3.97E2,4.22E2,2.45E2,3.26E2,3.768E3,1.7018E4,5.188E3,1.789E3,1.21E2,1.57E3],"tree_param":{"num_deleted":"0","num_feature":"24","num_nodes":"127","size_leaf_vector":"1"}},{"base_weights":[2.0576447E-2,-8.455288E1,1.070411E2,-1.2517604E2,-3.587308E1,6.7187225E1,1.9537265E2,-1.4370605E2,-1.03437706E2,-5.9857243E1,-1.2673026E1,4.551635E1,1.033427E2,1.6937883E2,2.4942984E2,-1.5571571E2,-1.334924E2,-1.106443E2,-7.690834E1,-7.0282585E1,-2.9604433E1,-2.5136162E1,2.2031975E1,1.9619286E1,5.9969738E1,7.6014336E1,1.1532822E2,1.4589415E2,1.9004674E2,2.3418394E2,3.0643817E2,-1.6005965E2,-1.4312639E2,-1.3582056E2,-8.196521E1,-1.18625435E2,-1.0172719E2,-8.6409584E1,-4.4726917E1,-7.802874E1,-5.7324963E1,-4.295787E1,-1.361506E0,-2.8915201E1,8.18503E0,1.229195E1,5.4445374E1,7.5381126E0,3.299839E1,3.7102142E1,6.675136E1,5.4505905E1,8.3601425E1,1.0963135E2,1.6476868E2,1.2812146E2,1.8843858E2,1.8177751E2,2.258925E2,2.221802E2,2.7553735E2,2.9253314E2,3.525329E2,-8.468837E0,-7.7758265E0,-7.223429E0,-3.8942297E0,-6.882962E0,-6.193359E0,-5.2692237E0,-2.2607589E0,-6.035372E0,-4.447654E0,-5.3416214E0,-4.451536E0,-4.7936206E0,-3.5590756E0,-2.9398954E0,-1.6379856E-1,-4.6219244E0,-3.683146E0,-3.1139228E0,-2.012079E0,-2.830995E0,-1.6838455E0,-7.7290475E-1,1.7129803E0,-2.5522575E0,-1.2115188E0,1.6823725E0,-1.0041507E-1,1.7793237E-1,1.1897151E0,2.2845094E0,4.739303E0,8.699897E-1,-9.8536205E-1,1.2325648E0,2.5659225E0,2.6086683E0,4.3672394E-2,3.0519698E0,4.564277E0,2.2642722E0,3.428646E0,3.7570598E0,4.7851577E0,5.253246E0,6.314915E0,7.571992E0,1.0050485E1,5.2150483E0,7.088701E0,9.164672E0,1.4462908E1,9.72854E0,8.081424E0,1.0919061E1,1.3247309E1,6.112443E0,1.1292787E1,2.2115206E1,1.3271639E1,1.3865001E1,1.6787893E1,1.7216253E1,2.703819E1],"categories":[],"categories_nodes":[],"categories_segments":[],"categories_sizes":[],"default_left":[0,0,0,0,0,0,0,0,0,0,0,0,0,0,0,0,0,0,0,0,0,0,0,0,0,0,0,0,0,0,0,0,0,0,0,0,0,0,0,0,1,0,0,0,0,0,0,0,0,0,0,0,0,0,0,0,0,0,0,0,0,0,0,0,0,0,0,0,0,0,0,0,0,0,0,0,0,0,0,0,0,0,0,0,0,0,0,0,0,0,0,0,0,0,0,0,0,0,0,0,0,0,0,0,0,0,0,0,0,0,0,0,0,0,0,0,0,0,0,0,0,0,0,0,0,0,0],"id":1,"left_children":[1,3,5,7,9,11,13,15,17,19,21,23,25,27,29,31,33,35,37,39,41,43,45,47,49,51,53,55,57,59,61,63,65,67,69,71,73,75,77,79,81,83,85,87,89,91,93,95,97,99,101,103,105,107,109,111,113,115,117,119,121,123,125,-1,-1,-1,-1,-1,-1,-1,-1,-1,-1,-1,-1,-1,-1,-1,-1,-1,-1,-1,-1,-1,-1,-1,-1,-1,-1,-1,-1,-1,-1,-1,-1,-1,-1,-1,-1,-1,-1,-1,-1,-1,-1,-1,-1,-1,-1,-1,-1,-1,-1,-1,-1,-1,-1,-1,-1,-1,-1,-1,-1,-1,-1,-1,-1],"loss_changes":[6.0628485E9,7.399132E8,1.0408993E9,8.214221E7,9.470707E7,1.5964147E8,1.2913331E8,1.3484544E7,1.7935872E7,2.63928E7,3.7422456E7,4.7683936E7,2.5001856E7,3.0105472E7,2.587136E7,2.744064E6,7.127488E6,5.24064E6,6.127608E6,6.24256E6,8.089598E6,8.016184E6,7.216714E6,7.375976E6,1.2677408E7,3.794752E6,1.4931328E7,2.1952768E7,9.746048E6,1.163136E7,3.931648E6,1.56544E6,1.12616E6,1.234304E6,2.211432E6,2.394944E6,2.250432E6,2.223992E6,2.667038E6,2.443552E6,1.968352E6,1.84476E6,3.4587412E6,5.92628E6,1.6832292E6,1.7658882E6,1.86122E6,6.4439465E6,3.310048E6,1.0212536E7,8.831712E6,7.84718E5,1.75472E6,3.609216E6,2.617648E6,6.653344E6,4.38832E6,6.885696E6,1.756448E6,6.679616E6,8.805216E6,3.095072E6,2.060192E6,0E0,0E0,0E0,0E0,0E0,0E0,0E0,0E0,0E0,0E0,0E0,0E0,0E0,0E0,0E0,0E0,0E0,0E0,0E0,0E0,0E0,0E0,0E0,0E0,0E0,0E0,0E0,0E0,0E0,0E0,0E0,0E0,0E0,0E0,0E0,0E0,0E0,0E0,0E0,0E0,0E0,0E0,0E0,0E0,0E0,0E0,0E0,0E0,0E0,0E0,0E0,0E0,0E0,0E0,0E0,0E0,0E0,0E0,0E0,0E0,0E0,0E0,0E0,0E0],"parents":[2147483647,0,0,1,1,2,2,3,3,4,4,5,5,6,6,7,7,8,8,9,9,10,10,11,11,12,12,13,13,14,14,15,15,16,16,17,17,18,18,19,19,20,20,21,21,22,22,23,23,24,24,25,25,26,26,27,27,28,28,29,29,30,30,31,31,32,32,33,33,34,34,35,35,36,36,37,37,38,38,39,39,40,40,41,41,42,42,43,43,44,44,45,45,46,46,47,47,48,48,49,49,50,50,51,51,52,52,53,53,54,54,55,55,56,56,57,57,58,58,59,59,60,60,61,61,62,62],"right_children":[2,4,6,8,10,12,14,16,18,20,22,24,26,28,30,32,34,36,38,40,42,44,46,48,50,52,54,56,58,60,62,64,66,68,70,72,74,76,78,80,82,84,86,88,90,92,94,96,98,100,102,104,106,108,110,112,114,116,118,120,122,124,126,-1,-1,-1,-1,-1,-1,-1,-1,-1,-1,-1,-1,-1,-1,-1,-1,-1,-1,-1,-1,-1,-1,-1,-1,-1,-1,-1,-1,-1,-1,-1,-1,-1,-1,-1,-1,-1,-1,-1,-1,-1,-1,-1,-1,-1,-1,-1,-1,-1,-1,-1,-1,-1,-1,-1,-1,-1,-1,-1,-1,-1,-1,-1,-1],"split_conditions":[2.6166666E2,1.395E2,3.88E2,9.8166664E1,1.8883333E2,1.535E2,4.9091086E2,7.6166664E1,6.775E1,8.35E1,1.07E2,3.07E2,3.25E2,4.3666666E2,4.05E2,3.2E1,2.22E2,1.17E2,5E-1,1.84E2,5E-1,8.660254E-1,8.660254E-1,8.8E1,7.583E1,5E-1,3.0467E2,2.76E2,3.0467E2,6.081667E2,6.39E2,5.95E1,8.660254E-1,5.983E1,5E-1,2.38E2,1.62E2,1.35E2,1.0836326E2,3.2E1,8.2E1,1.605E2,1.2775E2,1.62E2,7.3E1,1.43E2,1.75E2,1.0025E2,8.660254E-1,1.0725E2,3.5E2,5E-1,1.97E2,1E0,4.05E2,1.325E2,5.57E2,5.085133E-6,5.07E2,6.992712E1,3.3468025E0,5.57E2,8.660254E-1,-8.468837E0,-7.7758265E0,-7.223429E0,-3.8942297E0,-6.882962E0,-6.193359E0,-5.2692237E0,-2.2607589E0,-6.035372E0,-4.447654E0,-5.3416214E0,-4.451536E0,-4.7936206E0,-3.5590756E0,-2.9398954E0,-1.6379856E-1,-4.6219244E0,-3.683146E0,-3.1139228E0,-2.012079E0,-2.830995E0,-1.6838455E0,-7.7290475E-1,1.7129803E0,-2.5522575E0,-1.2115188E0,1.6823725E0,-1.0041507E-1,1.7793237E-1,1.1897151E0,2.2845094E0,4.739303E0,8.699897E-1,-9.8536205E-1,1.2325648E0,2.5659225E0,2.6086683E0,4.3672394E-2,3.0519698E0,4.564277E0,2.2642722E0,3.428646E0,3.7570598E0,4.7851577E0,5.253246E0,6.314915E0,7.571992E0,1.0050485E1,5.2150483E0,7.088701E0,9.164672E0,1.4462908E1,9.72854E0,8.081424E0,1.0919061E1,1.3247309E1,6.112443E0,1.1292787E1,2.2115206E1,1.3271639E1,1.3865001E1,1.6787893E1,1.7216253E1,2.703819E1],"split_indices":[17,17,17,17,17,0,17,17,0,0,0,17,17,17,0,0,11,17,23,11,23,23,23,0,0,23,0,0,0,17,0,17,23,0,23,11,11,11,0,0,5,17,0,10,15,0,0,15,23,15,17,21,0,23,0,0,10,19,10,0,19,11,22,0,0,0,0,0,0,0,0,0,0,0,0,0,0,0,0,0,0,0,0,0,0,0,0,0,0,0,0,0,0,0,0,0,0,0,0,0,0,0,0,0,0,0,0,0,0,0,0,0,0,0,0,0,0,0,0,0,0,0,0,0,0,0,0],"split_type":[0,0,0,0,0,0,0,0,0,0,0,0,0,0,0,0,0,0,0,0,0,0,0,0,0,0,0,0,0,0,0,0,0,0,0,0,0,0,0,0,0,0,0,0,0,0,0,0,0,0,0,0,0,0,0,0,0,0,0,0,0,0,0,0,0,0,0,0,0,0,0,0,0,0,0,0,0,0,0,0,0,0,0,0,0,0,0,0,0,0,0,0,0,0,0,0,0,0,0,0,0,0,0,0,0,0,0,0,0,0,0,0,0,0,0,0,0,0,0,0,0,0,0,0,0,0,0],"sum_hessian":[6.69845E5,3.74162E5,2.95683E5,2.03958E5,1.70204E5,2.03754E5,9.1929E4,1.10101E5,9.3857E4,8.3687E4,8.6517E4,1.27397E5,7.6357E4,6.2081E4,2.9848E4,5.0595E4,5.9506E4,7.3805E4,2.0052E4,6.2238E4,2.1449E4,6.3657E4,2.286E4,4.5634E4,8.1763E4,2.3281E4,5.3076E4,2.9064E4,3.3017E4,2.3554E4,6.294E3,3.7607E4,1.2988E4,5.6932E4,2.574E3,3.894E4,3.4865E4,1.548E4,4.572E3,3.8949E4,2.3289E4,1.4563E4,6.886E3,5.7173E4,6.484E3,1.7579E4,5.281E3,2.3981E4,2.1653E4,1.8703E4,6.306E4,6.073E3,1.7208E4,4.7595E4,5.481E3,2.0503E4,8.561E3,2.6833E4,6.184E3,1.826E4,5.294E3,4.841E3,1.453E3,1.2315E4,2.5292E4,1.2725E4,2.63E2,4.9333E4,7.599E3,1.571E3,1.003E3,3.6384E4,2.556E3,2.4861E4,1.0004E4,9.544E3,5.936E3,3.413E3,1.159E3,9.052E3,2.9897E4,1.8052E4,5.237E3,5.889E3,8.674E3,4.934E3,1.952E3,9.987E3,4.7186E4,1.853E3,4.631E3,9.993E3,7.586E3,4.341E3,9.4E2,1.7608E4,6.373E3,1.4877E4,6.776E3,1.3208E4,5.495E3,5.1154E4,1.1906E4,3.671E3,2.402E3,1.0132E4,7.076E3,3.7365E4,1.023E4,4.011E3,1.47E3,7.473E3,1.303E4,8.148E3,4.13E2,1.6407E4,1.0426E4,5.192E3,9.92E2,6.49E2,1.7611E4,3E2,4.994E3,3.585E3,1.256E3,1.395E3,5.8E1],"tree_param":{"num_deleted":"0","num_feature":"24","num_nodes":"127","size_leaf_vector":"1"}},{"base_weights":[-7.9505004E-2,-7.89507E1,1.0420949E2,-1.1826075E2,-3.119667E1,6.479608E1,1.8441228E2,-1.3642993E2,-9.7427025E1,-5.4856537E1,-9.205998E0,4.2980206E1,9.040452E1,1.5956158E2,2.3810596E2,-1.4747508E2,-1.2651438E2,-1.0404256E2,-7.737651E1,-6.6937874E1,-3.9090008E1,-1.9122002E1,1.7446587E1,2.4624233E1,5.911184E1,6.843802E1,1.0539861E2,1.3669183E2,1.7880614E2,2.175787E2,2.8810065E2,-1.5118942E2,-1.3628474E2,-1.2874953E2,-7.378199E1,-1.128275E2,-9.310371E1,-8.532766E1,-5.1018314E1,-7.315271E1,-3.9946487E1,-4.6255173E1,-9.812885E0,-2.3290981E1,1.3817442E1,8.067772E0,4.852439E1,-2.6206548E0,2.9890648E1,5.7853386E1,1.378509E2,6.581093E1,1.3188411E2,1.0243685E2,1.7750679E2,1.2575031E2,1.8630637E2,1.7176219E2,2.2979349E2,3.832311E2,2.1314551E2,2.772852E2,3.4367355E2,-7.9762964E0,-7.3277545E0,-6.8464837E0,5.94181E-1,-6.5643106E0,-5.970363E0,-4.22564E0,-4.5593435E-1,-5.7614646E0,-4.3395247E0,-5.0469627E0,-4.0921335E0,-4.9857254E0,-3.7975125E0,-3.1278253E0,-1.3503665E0,-3.8770924E0,-2.485727E0,-2.2441263E0,7.325469E-3,-2.6428516E0,-1.349905E0,-1.3209535E0,5.518997E-1,-1.6368557E0,-2.112273E-1,-3.02925E-1,1.4426265E0,1.3086556E-1,1.902935E0,2.0931754E0,4.576468E0,-1.6212822E0,4.042401E-1,2.0385447E0,1.0905784E0,2.5700333E0,3.5225377E0,6.262022E0,1.3926595E1,2.311315E0,3.686346E0,5.8531833E0,1.0043787E1,4.782666E0,5.85342E0,7.8516984E0,1.1585254E1,3.859871E0,6.584685E0,8.953717E0,1.517587E1,6.57093E0,8.93284E0,1.0699177E1,1.3209958E1,2.3649641E1,1.5365651E1,8.774846E0,1.1125937E1,1.4605504E1,1.2246278E1,2.316715E1,1.6389349E1],"categories":[],"categories_nodes":[],"categories_segments":[],"categories_sizes":[],"default_left":[0,0,0,0,0,0,0,0,0,0,0,0,0,0,1,0,0,0,0,0,0,0,0,0,1,1,1,1,1,0,0,0,0,1,0,0,0,0,0,0,0,1,0,1,1,1,1,0,0,0,0,0,0,0,0,0,0,0,0,0,1,0,0,0,0,0,0,0,0,0,0,0,0,0,0,0,0,0,0,0,0,0,0,0,0,0,0,0,0,0,0,0,0,0,0,0,0,0,0,0,0,0,0,0,0,0,0,0,0,0,0,0,0,0,0,0,0,0,0,0,0,0,0,0,0,0,0],"id":2,"left_children":[1,3,5,7,9,11,13,15,17,19,21,23,25,27,29,31,33,35,37,39,41,43,45,47,49,51,53,55,57,59,61,63,65,67,69,71,73,75,77,79,81,83,85,87,89,91,93,95,97,99,101,103,105,107,109,111,113,115,117,119,121,123,125,-1,-1,-1,-1,-1,-1,-1,-1,-1,-1,-1,-1,-1,-1,-1,-1,-1,-1,-1,-1,-1,-1,-1,-1,-1,-1,-1,-1,-1,-1,-1,-1,-1,-1,-1,-1,-1,-1,-1,-1,-1,-1,-1,-1,-1,-1,-1,-1,-1,-1,-1,-1,-1,-1,-1,-1,-1,-1,-1,-1,-1,-1,-1,-1],"loss_changes":[5.5053087E9,7.153912E8,9.1104486E8,7.911014E7,8.952586E7,1.0795808E8,1.2667622E8,1.2209152E7,1.2908544E7,1.5785936E7,2.3569724E7,3.0898704E7,2.9272256E7,2.8548992E7,3.0770048E7,2.174464E6,6.92576E6,7.025344E6,5.059456E6,7.868944E6,7.543492E6,8.926238E6,7.048298E6,7.003906E6,5.495536E6,6.002752E6,1.1264832E7,1.6083648E7,1.2621312E7,1.5562688E7,5.15904E6,1.50816E6,1.260208E6,1.322112E6,1.661093E6,2.528992E6,2.869696E6,2.496528E6,1.550305E6,3.920048E6,1.738564E6,3.671552E6,2.4489965E6,1.0391324E7,2.182578E6,3.0367415E6,1.602013E6,2.5235155E6,3.594848E6,4.440288E6,1.513864E6,5.365952E6,1.441708E6,5.02576E6,2.274888E6,7.005792E6,4.488336E6,8.592896E6,2.269408E6,3.629896E6,7.283392E6,3.441536E6,2.547744E6,0E0,0E0,0E0,0E0,0E0,0E0,0E0,0E0,0E0,0E0,0E0,0E0,0E0,0E0,0E0,0E0,0E0,0E0,0E0,0E0,0E0,0E0,0E0,0E0,0E0,0E0,0E0,0E0,0E0,0E0,0E0,0E0,0E0,0E0,0E0,0E0,0E0,0E0,0E0,0E0,0E0,0E0,0E0,0E0,0E0,0E0,0E0,0E0,0E0,0E0,0E0,0E0,0E0,0E0,0E0,0E0,0E0,0E0,0E0,0E0,0E0,0E0,0E0,0E0],"parents":[2147483647,0,0,1,1,2,2,3,3,4,4,5,5,6,6,7,7,8,8,9,9,10,10,11,11,12,12,13,13,14,14,15,15,16,16,17,17,18,18,19,19,20,20,21,21,22,22,23,23,24,24,25,25,26,26,27,27,28,28,29,29,30,30,31,31,32,32,33,33,34,34,35,35,36,36,37,37,38,38,39,39,40,40,41,41,42,42,43,43,44,44,45,45,46,46,47,47,48,48,49,49,50,50,51,51,52,52,53,53,54,54,55,55,56,56,57,57,58,58,59,59,60,60,61,61,62,62],"right_children":[2,4,6,8,10,12,14,16,18,20,22,24,26,28,30,32,34,36,38,40,42,44,46,48,50,52,54,56,58,60,62,64,66,68,70,72,74,76,78,80,82,84,86,88,90,92,94,96,98,100,102,104,106,108,110,112,114,116,118,120,122,124,126,-1,-1,-1,-1,-1,-1,-1,-1,-1,-1,-1,-1,-1,-1,-1,-1,-1,-1,-1,-1,-1,-1,-1,-1,-1,-1,-1,-1,-1,-1,-1,-1,-1,-1,-1,-1,-1,-1,-1,-1,-1,-1,-1,-1,-1,-1,-1,-1,-1,-1,-1,-1,-1,-1,-1,-1,-1,-1,-1,-1,-1,-1,-1,-1],"split_conditions":[2.7E2,1.42E2,3.8577585E2,9.9E1,1.92E2,3.25E2,4.9091086E2,7.62E1,6.123234E-17,1.81E2,1.07E2,1.205E2,1.525E2,4.31E2,6.085E2,3.2E1,2.38E2,1.21E2,7.825E1,5E-1,5E-1,8.660254E-1,8.660254E-1,2.12E2,6.085E2,4.69E2,5.87E2,4.78E2,5.36E2,1.2154929E-1,7.06E2,6.1E1,3.4702777E2,9.5E1,3.65E2,8.94E1,1.25E2,1.24E2,2.1422E2,9.37878E1,3.7E2,2.65E2,9.9E1,2.05E2,1.1225E2,3.765E2,3.1E2,5.175E1,-5E-1,8.660254E-1,3.72E2,5E-1,7.25E2,2.415E2,7.7325E2,6.123234E-17,5.8E2,3.56E2,4.65E2,8.660254E-1,3.3742966E2,1.2246469E-16,1.5648077E1,-7.9762964E0,-7.3277545E0,-6.8464837E0,5.94181E-1,-6.5643106E0,-5.970363E0,-4.22564E0,-4.5593435E-1,-5.7614646E0,-4.3395247E0,-5.0469627E0,-4.0921335E0,-4.9857254E0,-3.7975125E0,-3.1278253E0,-1.3503665E0,-3.8770924E0,-2.485727E0,-2.2441263E0,7.325469E-3,-2.6428516E0,-1.349905E0,-1.3209535E0,5.518997E-1,-1.6368557E0,-2.112273E-1,-3.02925E-1,1.4426265E0,1.3086556E-1,1.902935E0,2.0931754E0,4.576468E0,-1.6212822E0,4.042401E-1,2.0385447E0,1.0905784E0,2.5700333E0,3.5225377E0,6.262022E0,1.3926595E1,2.311315E0,3.686346E0,5.8531833E0,1.0043787E1,4.782666E0,5.85342E0,7.8516984E0,1.1585254E1,3.859871E0,6.584685E0,8.953717E0,1.517587E1,6.57093E0,8.93284E0,1.0699177E1,1.3209958E1,2.3649641E1,1.5365651E1,8.774846E0,1.1125937E1,1.4605504E1,1.2246278E1,2.316715E1,1.6389349E1],"split_indices":[7,7,7,7,7,7,7,7,23,1,12,12,12,7,1,12,11,1,12,23,23,23,23,10,1,1,1,1,1,5,8,7,11,1,11,5,7,11,1,5,11,1,12,1,1,1,1,12,20,23,10,23,1,12,1,23,10,11,10,23,1,22,19,0,0,0,0,0,0,0,0,0,0,0,0,0,0,0,0,0,0,0,0,0,0,0,0,0,0,0,0,0,0,0,0,0,0,0,0,0,0,0,0,0,0,0,0,0,0,0,0,0,0,0,0,0,0,0,0,0,0,0,0,0,0,0,0],"split_type":[0,0,0,0,0,0,0,0,0,0,0,0,0,0,0,0,0,0,0,0,0,0,0,0,0,0,0,0,0,0,0,0,0,0,0,0,0,0,0,0,0,0,0,0,0,0,0,0,0,0,0,0,0,0,0,0,0,0,0,0,0,0,0,0,0,0,0,0,0,0,0,0,0,0,0,0,0,0,0,0,0,0,0,0,0,0,0,0,0,0,0,0,0,0,0,0,0,0,0,0,0,0,0,0,0,0,0,0,0,0,0,0,0,0,0,0,0,0,0,0,0,0,0,0,0,0,0],"sum_hessian":[6.69304E5,3.81093E5,2.88211E5,2.09026E5,1.72067E5,1.93247E5,9.4964E4,1.1165E5,9.7376E4,8.2887E4,8.918E4,1.04352E5,8.8895E4,6.4921E4,3.0043E4,5.281E4,5.884E4,7.3215E4,2.4161E4,4.6926E4,3.5961E4,6.4998E4,2.4182E4,4.8812E4,5.554E4,3.6065E4,5.283E4,2.967E4,3.5251E4,2.1302E4,8.741E3,3.964E4,1.317E4,5.6446E4,2.394E3,4.06E4,3.2615E4,1.856E4,5.601E3,3.8142E4,8.784E3,2.889E4,7.071E3,5.7696E4,7.302E3,1.8577E4,5.605E3,7.907E3,4.0905E4,5.4668E4,8.72E2,3.4633E4,1.432E3,5.0748E4,2.082E3,2.4312E4,5.358E3,3.0976E4,4.275E3,5.53E2,2.0749E4,7.322E3,1.419E3,1.4151E4,2.5489E4,1.3113E4,5.7E1,4.4382E4,1.2064E4,2.053E3,3.41E2,3.7168E4,3.432E3,1.9228E4,1.3387E4,7.32E3,1.124E4,3.782E3,1.819E3,3.2124E4,6.018E3,7.821E3,9.63E2,2.1513E4,7.377E3,3.936E3,3.135E3,3.8581E4,1.9115E4,3.145E3,4.157E3,1.5721E4,2.856E3,4.855E3,7.5E2,2.089E3,5.818E3,1.7429E4,2.3476E4,3.6154E4,1.8514E4,8.02E2,7E1,9.971E3,2.4662E4,1.181E3,2.51E2,3.4678E4,1.607E4,1.514E3,5.68E2,2.653E3,2.1659E4,5.049E3,3.09E2,4.524E3,2.6452E4,2.934E3,1.341E3,2.51E2,3.02E2,4.14E3,1.6609E4,5.016E3,2.306E3,1.63E2,1.256E3],"tree_param":{"num_deleted":"0","num_feature":"24","num_nodes":"127","size_leaf_vector":"1"}},{"base_weights":[-5.8588803E-2,-7.363902E1,1.0202445E2,-1.12542015E2,-2.7664078E1,6.790297E1,1.8583656E2,-1.289654E2,-9.127253E1,-4.8309216E1,-2.8431296E0,4.7066364E1,9.590676E1,1.6031023E2,2.2931026E2,-1.407833E2,-1.1959909E2,-9.671952E1,-6.8536964E1,-5.7532944E1,-2.6293642E1,-1.6550169E1,1.6801802E1,3.1823065E1,6.3397224E1,7.492977E1,1.0939516E2,1.5526274E2,2.1944354E2,2.1042879E2,2.7389383E2,-1.4955472E2,-1.363415E2,-1.2164252E2,-7.517761E1,-1.0294434E2,-8.5641426E1,-7.737628E1,-3.850134E1,-6.785929E1,-4.717142E1,-3.1627476E1,1.3964699E1,-5.874861E1,-1.3855821E1,9.304536E0,4.090916E1,6.3050447E0,3.6732826E1,5.4281082E1,7.463941E1,6.645596E1,9.513111E1,1.0383046E2,1.4883507E2,1.3534813E2,1.6846446E2,2.3752344E2,1.8428638E2,3.660726E2,2.0620067E2,2.5841934E2,3.0529193E2,-7.493988E0,-1.4877844E0,-6.8292885E0,3.8481328E-1,-6.2214622E0,-5.6752133E0,-4.2640057E0,-5.498865E-1,-5.206738E0,-2.885008E0,-4.426101E0,-3.258419E0,-4.4403567E0,-3.3253467E0,-2.1964524E0,1.5612077E0,-3.5623517E0,-2.346268E0,-2.9111683E0,-1.9757906E0,-1.9611073E0,-7.810092E-1,-1.11250594E-1,2.2859232E0,-3.9487247E0,-2.127184E0,-4.344743E-1,-1.506542E0,1.1744954E-1,1.5154846E0,1.3939432E0,2.8931425E0,-1.2343959E0,8.0860966E-1,1.3698312E0,2.4561317E0,2.6308353E0,3.946949E0,3.5955312E0,5.8042464E0,1.8473454E0,3.5827005E0,5.4163833E0,3.3756273E0,4.8220196E0,5.9832015E0,7.0472713E0,1.0151083E1,5.824329E0,7.9341173E0,4.51442E0,8.551445E0,1.1375862E1,1.5612778E1,7.8211665E0,1.0431911E1,2.323258E1,1.4595927E1,8.163287E0,1.0632677E1,1.3599605E1,1.1330789E1,2.2444345E1,1.4966921E1],"categories":[],"categories_nodes":[],"categories_segments":[],"categories_sizes":[],"default_left":[0,0,0,0,0,0,0,0,0,0,0,0,0,1,1,0,0,0,0,0,0,0,0,0,0,0,0,0,0,0,0,1,0,0,0,0,0,0,0,0,0,0,0,0,0,1,0,0,0,0,1,0,0,0,1,0,0,0,0,0,0,0,0,0,0,0,0,0,0,0,0,0,0,0,0,0,0,0,0,0,0,0,0,0,0,0,0,0,0,0,0,0,0,0,0,0,0,0,0,0,0,0,0,0,0,0,0,0,0,0,0,0,0,0,0,0,0,0,0,0,0,0,0,0,0,0,0],"id":3,"left_children":[1,3,5,7,9,11,13,15,17,19,21,23,25,27,29,31,33,35,37,39,41,43,45,47,49,51,53,55,57,59,61,63,65,67,69,71,73,75,77,79,81,83,85,87,89,91,93,95,97,99,101,103,105,107,109,111,113,115,117,119,121,123,125,-1,-1,-1,-1,-1,-1,-1,-1,-1,-1,-1,-1,-1,-1,-1,-1,-1,-1,-1,-1,-1,-1,-1,-1,-1,-1,-1,-1,-1,-1,-1,-1,-1,-1,-1,-1,-1,-1,-1,-1,-1,-1,-1,-1,-1,-1,-1,-1,-1,-1,-1,-1,-1,-1,-1,-1,-1,-1,-1,-1,-1,-1,-1,-1],"loss_changes":[5.024799E9,6.953078E8,8.013299E8,7.35447E7,9.130654E7,1.1619398E8,8.993101E7,1.3135488E7,1.1356096E7,1.9751472E7,2.1787226E7,2.842224E7,2.403008E7,1.5212928E7,2.5187968E7,2.026176E6,6.00832E6,5.09536E6,4.706104E6,7.331632E6,6.168168E6,5.417773E6,6.009742E6,7.399236E6,5.645376E6,5.685824E6,1.1332544E7,1.2351872E7,2.50832E6,1.3791552E7,4.254528E6,6.82752E5,1.228288E6,1.423168E6,1.891028E6,2.54608E6,1.56496E6,1.696632E6,1.5284155E6,2.431456E6,2.893112E6,3.082768E6,1.727939E6,9.34031E5,3.766537E6,3.70596E6,1.740938E6,2.9150952E6,5.72798E6,1.245264E6,2.782976E6,3.591104E6,3.573248E6,5.290944E6,2.703616E6,8.24208E6,5.658368E6,1.909104E6,8.95576E5,3.928744E6,5.6496E6,2.520128E6,2.378144E6,0E0,0E0,0E0,0E0,0E0,0E0,0E0,0E0,0E0,0E0,0E0,0E0,0E0,0E0,0E0,0E0,0E0,0E0,0E0,0E0,0E0,0E0,0E0,0E0,0E0,0E0,0E0,0E0,0E0,0E0,0E0,0E0,0E0,0E0,0E0,0E0,0E0,0E0,0E0,0E0,0E0,0E0,0E0,0E0,0E0,0E0,0E0,0E0,0E0,0E0,0E0,0E0,0E0,0E0,0E0,0E0,0E0,0E0,0E0,0E0,0E0,0E0,0E0,0E0],"parents":[2147483647,0,0,1,1,2,2,3,3,4,4,5,5,6,6,7,7,8,8,9,9,10,10,11,11,12,12,13,13,14,14,15,15,16,16,17,17,18,18,19,19,20,20,21,21,22,22,23,23,24,24,25,25,26,26,27,27,28,28,29,29,30,30,31,31,32,32,33,33,34,34,35,35,36,36,37,37,38,38,39,39,40,40,41,41,42,42,43,43,44,44,45,45,46,46,47,47,48,48,49,49,50,50,51,51,52,52,53,53,54,54,55,55,56,56,57,57,58,58,59,59,60,60,61,61,62,62],"right_children":[2,4,6,8,10,12,14,16,18,20,22,24,26,28,30,32,34,36,38,40,42,44,46,48,50,52,54,56,58,60,62,64,66,68,70,72,74,76,78,80,82,84,86,88,90,92,94,96,98,100,102,104,106,108,110,112,114,116,118,120,122,124,126,-1,-1,-1,-1,-1,-1,-1,-1,-1,-1,-1,-1,-1,-1,-1,-1,-1,-1,-1,-1,-1,-1,-1,-1,-1,-1,-1,-1,-1,-1,-1,-1,-1,-1,-1,-1,-1,-1,-1,-1,-1,-1,-1,-1,-1,-1,-1,-1,-1,-1,-1,-1,-1,-1,-1,-1,-1,-1,-1,-1,-1,-1,-1,-1],"split_conditions":[2.78E2,1.43E2,4.02E2,1.02E2,2.02E2,3.34E2,4.9091086E2,7.616E1,7.125E1,8.35E1,9.2E1,1.34E2,1.635E2,6.085E2,6.085E2,6.1E1,2.38E2,1.24E2,5E-1,1.68E2,8.660254E-1,1.63625E2,8.660254E-1,2.24E2,3.11E2,3.72E2,3.0467E2,4.44E2,5E-1,1.2154929E-1,6.47E2,3.7E2,3.58E2,1.11E2,3.65E2,2.84E2,5E-1,1.21E2,1.3775E2,5E-1,1.415E2,2.007E2,1.175E2,-2.4492937E-16,7.0710677E-1,3.265E2,1.29E2,5.4E1,3.12E2,3.56E2,4.88E2,6.575E1,2.5951426E1,3.69E2,6.885E2,2.415E2,6.749431E1,5.8E2,8.660254E-1,8.660254E-1,3.4702777E2,5E-1,3.7239432E0,-7.493988E0,-1.4877844E0,-6.8292885E0,3.8481328E-1,-6.2214622E0,-5.6752133E0,-4.2640057E0,-5.498865E-1,-5.206738E0,-2.885008E0,-4.426101E0,-3.258419E0,-4.4403567E0,-3.3253467E0,-2.1964524E0,1.5612077E0,-3.5623517E0,-2.346268E0,-2.9111683E0,-1.9757906E0,-1.9611073E0,-7.810092E-1,-1.11250594E-1,2.2859232E0,-3.9487247E0,-2.127184E0,-4.344743E-1,-1.506542E0,1.1744954E-1,1.5154846E0,1.3939432E0,2.8931425E0,-1.2343959E0,8.0860966E-1,1.3698312E0,2.4561317E0,2.6308353E0,3.946949E0,3.5955312E0,5.8042464E0,1.8473454E0,3.5827005E0,5.4163833E0,3.3756273E0,4.8220196E0,5.9832015E0,7.0472713E0,1.0151083E1,5.824329E0,7.9341173E0,4.51442E0,8.551445E0,1.1375862E1,1.5612778E1,7.8211665E0,1.0431911E1,2.323258E1,1.4595927E1,8.163287E0,1.0632677E1,1.3599605E1,1.1330789E1,2.2444345E1,1.4966921E1],"split_indices":[6,6,6,6,6,6,6,6,0,0,0,0,0,1,1,6,11,6,23,6,23,18,23,10,6,6,0,6,22,5,6,1,11,11,11,10,23,11,0,23,1,11,0,22,21,1,0,0,6,11,1,0,19,6,1,0,0,10,23,23,11,22,19,0,0,0,0,0,0,0,0,0,0,0,0,0,0,0,0,0,0,0,0,0,0,0,0,0,0,0,0,0,0,0,0,0,0,0,0,0,0,0,0,0,0,0,0,0,0,0,0,0,0,0,0,0,0,0,0,0,0,0,0,0,0,0,0],"split_type":[0,0,0,0,0,0,0,0,0,0,0,0,0,0,0,0,0,0,0,0,0,0,0,0,0,0,0,0,0,0,0,0,0,0,0,0,0,0,0,0,0,0,0,0,0,0,0,0,0,0,0,0,0,0,0,0,0,0,0,0,0,0,0,0,0,0,0,0,0,0,0,0,0,0,0,0,0,0,0,0,0,0,0,0,0,0,0,0,0,0,0,0,0,0,0,0,0,0,0,0,0,0,0,0,0,0,0,0,0,0,0,0,0,0,0,0,0,0,0,0,0,0,0,0,0,0,0],"sum_hessian":[6.68962E5,3.88753E5,2.80209E5,2.10571E5,1.78182E5,1.99138E5,8.1071E4,1.18819E5,9.1752E4,9.7273E4,8.0909E4,1.14182E5,8.4956E4,5.1082E4,2.9989E4,5.2528E4,6.6291E4,7.4016E4,1.7736E4,6.8551E4,2.8722E4,4.7657E4,3.3252E4,5.9059E4,5.5123E4,3.3251E4,5.1705E4,4.7068E4,4.014E3,2.1071E4,8.918E3,1.7647E4,3.4881E4,6.3374E4,2.917E3,4.7383E4,2.6633E4,1.3702E4,4.034E3,3.4331E4,3.422E4,2.5362E4,3.36E3,2.859E3,4.4798E4,2.5365E4,7.887E3,9.53E3,4.9529E4,3.0443E4,2.468E4,2.3428E4,9.823E3,4.5315E4,6.39E3,1.8768E4,2.83E4,2.647E3,1.367E3,5.55E2,2.0516E4,5.98E3,2.938E3,1.7599E4,4.8E1,3.4822E4,5.9E1,4.7198E4,1.6176E4,2.52E3,3.97E2,4.6167E4,1.216E3,2.3345E4,3.288E3,6.675E3,7.027E3,3.743E3,2.91E2,2.9547E4,4.784E3,1.4001E4,2.0219E4,1.72E4,8.162E3,2.226E3,1.134E3,1.27E3,1.589E3,3.4005E4,1.0793E4,1.9056E4,6.309E3,4.461E3,3.426E3,2.301E3,7.229E3,2.8247E4,2.1282E4,2.8521E4,1.922E3,2.3158E4,1.522E3,3.51E3,1.9918E4,6.645E3,3.178E3,3.09E4,1.4415E4,5.581E3,8.09E2,1.0382E4,8.386E3,9E2,2.74E4,2.338E3,3.09E2,6.41E2,7.26E2,2.36E2,3.19E2,2.684E3,1.7832E4,4.186E3,1.794E3,1.14E2,2.824E3],"tree_param":{"num_deleted":"0","num_feature":"24","num_nodes":"127","size_leaf_vector":"1"}},{"base_weights":[6.585488E-2,-7.310362E1,9.258748E1,-1.07181755E2,-2.9987795E1,5.6789635E1,1.6769429E2,-1.2366532E2,-8.83371E1,-5.001726E1,-9.699297E0,3.7037262E1,8.173051E1,1.4450168E2,2.1781958E2,-1.33718E2,-1.1463771E2,-9.413983E1,-7.075714E1,-5.5954853E1,-2.5011368E1,-1.5213595E1,2.3548664E1,2.10813E1,5.13224E1,6.2185444E1,9.386321E1,1.23842285E2,1.6186063E2,1.9866238E2,2.570827E2,-1.4204512E2,-1.2949236E2,-1.1663615E2,-6.912432E1,-1.0001833E2,-8.1124626E1,-7.881335E1,-5.486587E1,-6.644124E1,-4.3197918E1,-3.1818266E1,7.712062E0,-2.5763643E1,1.4912709E0,9.981323E0,4.547344E1,2.8216331E1,7.362416E0,3.5534393E1,5.7078495E1,5.8408215E1,9.328684E1,9.139628E1,1.5993976E2,1.1489196E2,1.6488171E2,1.5468855E2,1.957331E2,3.531598E2,1.9447333E2,2.4317188E2,2.913957E2,-7.119105E0,-1.1275951E0,-6.509085E0,-3.976218E0,-6.05471E0,-5.6358814E0,-3.8652446E0,-6.840144E-2,-5.2664876E0,-4.632116E0,-4.5412045E0,-3.670036E0,-4.58046E0,-3.5217845E0,-3.1469007E0,-1.6990035E0,-4.0446744E0,-3.0005784E0,-2.5684235E0,-1.5738627E0,-1.8128952E0,3.1206793E-1,1.6334833E-1,3.2888944E0,-2.3274562E0,-1.0460724E0,-1.379388E-1,1.1610785E0,-2.0427654E0,6.453069E-1,2.1308858E0,6.792512E0,1.0440563E0,2.0060785E0,-5.511126E-1,8.034262E-1,1.3691303E0,2.605064E0,2.81773E0,7.4318314E0,3.347782E0,1.9989723E0,4.3093777E0,8.036364E0,4.3248243E0,5.462404E0,1.3242366E1,7.449969E0,3.4708881E0,6.022194E0,8.010303E0,1.376653E1,5.7796865E0,8.041768E0,1.0451678E1,8.33666E0,2.1904984E1,1.424679E1,8.014538E0,1.0103177E1,1.2872447E1,1.0069825E1,1.3095668E1,1.5975031E1],"categories":[],"categories_nodes":[],"categories_segments":[],"categories_sizes":[],"default_left":[0,0,0,0,0,0,0,0,0,0,0,0,0,0,1,0,0,0,0,0,0,1,1,0,0,1,1,1,1,0,0,1,0,0,0,0,0,0,0,0,0,0,0,0,0,0,0,0,0,0,1,0,0,0,0,0,0,0,0,0,1,0,0,0,0,0,0,0,0,0,0,0,0,0,0,0,0,0,0,0,0,0,0,0,0,0,0,0,0,0,0,0,0,0,0,0,0,0,0,0,0,0,0,0,0,0,0,0,0,0,0,0,0,0,0,0,0,0,0,0,0,0,0,0,0,0,0],"id":4,"left_children":[1,3,5,7,9,11,13,15,17,19,21,23,25,27,29,31,33,35,37,39,41,43,45,47,49,51,53,55,57,59,61,63,65,67,69,71,73,75,77,79,81,83,85,87,89,91,93,95,97,99,101,103,105,107,109,111,113,115,117,119,121,123,125,-1,-1,-1,-1,-1,-1,-1,-1,-1,-1,-1,-1,-1,-1,-1,-1,-1,-1,-1,-1,-1,-1,-1,-1,-1,-1,-1,-1,-1,-1,-1,-1,-1,-1,-1,-1,-1,-1,-1,-1,-1,-1,-1,-1,-1,-1,-1,-1,-1,-1,-1,-1,-1,-1,-1,-1,-1,-1,-1,-1,-1,-1,-1,-1],"loss_changes":[4.528684E9,5.48849E8,7.942561E8,6.479795E7,6.7012416E7,9.855533E7,1.1081984E8,1.0084352E7,9.924288E6,1.2319472E7,1.502042E7,2.5446512E7,2.0960896E7,2.3359872E7,2.2635264E7,1.834112E6,5.325696E6,5.591616E6,3.089104E6,8.967888E6,3.54746E6,1.2384396E7,3.4664525E6,5.162228E6,5.351184E6,3.973152E6,8.877536E6,1.0916416E7,8.575232E6,1.3053248E7,4.648448E6,7.1008E5,1.193088E6,9.67616E5,1.368426E6,1.96528E6,1.699728E6,1.712176E6,1.36886E6,3.415008E6,2.895928E6,2.227769E6,7.0777575E5,4.33391E6,2.512299E6,1.0712271E6,1.144006E6,3.028984E6,2.8886002E6,2.124392E6,2.852592E6,4.754696E6,1.741352E6,4.590592E6,2.21238E6,6.163008E6,2.707408E6,7.007552E6,2.351168E6,2.96966E6,5.089792E6,4.147584E6,2.275344E6,0E0,0E0,0E0,0E0,0E0,0E0,0E0,0E0,0E0,0E0,0E0,0E0,0E0,0E0,0E0,0E0,0E0,0E0,0E0,0E0,0E0,0E0,0E0,0E0,0E0,0E0,0E0,0E0,0E0,0E0,0E0,0E0,0E0,0E0,0E0,0E0,0E0,0E0,0E0,0E0,0E0,0E0,0E0,0E0,0E0,0E0,0E0,0E0,0E0,0E0,0E0,0E0,0E0,0E0,0E0,0E0,0E0,0E0,0E0,0E0,0E0,0E0,0E0,0E0],"parents":[2147483647,0,0,1,1,2,2,3,3,4,4,5,5,6,6,7,7,8,8,9,9,10,10,11,11,12,12,13,13,14,14,15,15,16,16,17,17,18,18,19,19,20,20,21,21,22,22,23,23,24,24,25,25,26,26,27,27,28,28,29,29,30,30,31,31,32,32,33,33,34,34,35,35,36,36,37,37,38,38,39,39,40,40,41,41,42,42,43,43,44,44,45,45,46,46,47,47,48,48,49,49,50,50,51,51,52,52,53,53,54,54,55,55,56,56,57,57,58,58,59,59,60,60,61,61,62,62],"right_children":[2,4,6,8,10,12,14,16,18,20,22,24,26,28,30,32,34,36,38,40,42,44,46,48,50,52,54,56,58,60,62,64,66,68,70,72,74,76,78,80,82,84,86,88,90,92,94,96,98,100,102,104,106,108,110,112,114,116,118,120,122,124,126,-1,-1,-1,-1,-1,-1,-1,-1,-1,-1,-1,-1,-1,-1,-1,-1,-1,-1,-1,-1,-1,-1,-1,-1,-1,-1,-1,-1,-1,-1,-1,-1,-1,-1,-1,-1,-1,-1,-1,-1,-1,-1,-1,-1,-1,-1,-1,-1,-1,-1,-1,-1,-1,-1,-1,-1,-1,-1,-1,-1,-1,-1,-1,-1],"split_conditions":[2.63E2,1.42E2,3.8577585E2,9.9E1,1.92E2,3.25E2,4.9091086E2,7.616E1,6.123234E-17,5E-1,8.660254E-1,1.19E2,1.485E2,4.31E2,5.87E2,6.1E1,2.36E2,1.25E2,6.7E1,1.7675E2,1.0975E2,2.125E2,1.7675E2,2.7336735E1,3.04E2,3.565E2,5.87E2,4.78E2,4.78E2,1.2154929E-1,5.57E2,3.7E2,2.63E2,8.2E1,3.84E2,1.1475E2,-2.4492937E-16,1.24E2,2.05E2,-2.4492937E-16,1.73E2,3.7E2,6.540275E1,1.44E2,3.815E2,7.05E1,6.3497803E1,3.06E2,5.325E1,8.660254E-1,6.885E2,2.1566715E1,6.555E2,1E0,-8.660254E-1,6.123234E-17,5.03625E2,3.56E2,5E-1,8.660254E-1,3.235E2,5E-1,9.357E1,-7.119105E0,-1.1275951E0,-6.509085E0,-3.976218E0,-6.05471E0,-5.6358814E0,-3.8652446E0,-6.840144E-2,-5.2664876E0,-4.632116E0,-4.5412045E0,-3.670036E0,-4.58046E0,-3.5217845E0,-3.1469007E0,-1.6990035E0,-4.0446744E0,-3.0005784E0,-2.5684235E0,-1.5738627E0,-1.8128952E0,3.1206793E-1,1.6334833E-1,3.2888944E0,-2.3274562E0,-1.0460724E0,-1.379388E-1,1.1610785E0,-2.0427654E0,6.453069E-1,2.1308858E0,6.792512E0,1.0440563E0,2.0060785E0,-5.511126E-1,8.034262E-1,1.3691303E0,2.605064E0,2.81773E0,7.4318314E0,3.347782E0,1.9989723E0,4.3093777E0,8.036364E0,4.3248243E0,5.462404E0,1.3242366E1,7.449969E0,3.4708881E0,6.022194E0,8.010303E0,1.376653E1,5.7796865E0,8.041768E0,1.0451678E1,8.33666E0,2.1904984E1,1.424679E1,8.014538E0,1.0103177E1,1.2872447E1,1.0069825E1,1.3095668E1,1.5975031E1],"split_indices":[6,6,6,6,6,6,6,6,23,23,23,12,12,6,1,6,11,6,12,1,12,1,1,19,6,1,1,1,1,5,11,1,11,1,11,1,22,11,1,22,6,11,19,11,1,1,19,6,12,23,1,19,1,23,23,23,18,11,22,23,1,22,2,0,0,0,0,0,0,0,0,0,0,0,0,0,0,0,0,0,0,0,0,0,0,0,0,0,0,0,0,0,0,0,0,0,0,0,0,0,0,0,0,0,0,0,0,0,0,0,0,0,0,0,0,0,0,0,0,0,0,0,0,0,0,0,0],"split_type":[0,0,0,0,0,0,0,0,0,0,0,0,0,0,0,0,0,0,0,0,0,0,0,0,0,0,0,0,0,0,0,0,0,0,0,0,0,0,0,0,0,0,0,0,0,0,0,0,0,0,0,0,0,0,0,0,0,0,0,0,0,0,0,0,0,0,0,0,0,0,0,0,0,0,0,0,0,0,0,0,0,0,0,0,0,0,0,0,0,0,0,0,0,0,0,0,0,0,0,0,0,0,0,0,0,0,0,0,0,0,0,0,0,0,0,0,0,0,0,0,0,0,0,0,0,0,0],"sum_hessian":[6.68956E5,3.73544E5,2.95412E5,2.08638E5,1.64906E5,2.0006E5,9.5352E4,1.11288E5,9.735E4,8.2982E4,8.1924E4,1.11644E5,8.8416E4,6.5192E4,3.016E4,5.2648E4,5.864E4,7.3188E4,2.4162E4,6.7058E4,1.5924E4,7.027E4,1.1654E4,5.2739E4,5.8905E4,3.3866E4,5.455E4,2.977E4,3.5422E4,2.0274E4,9.886E3,1.7712E4,3.4936E4,5.6172E4,2.468E3,5.0412E4,2.2776E4,1.6031E4,8.131E3,3.6802E4,3.0256E4,1.3182E4,2.742E3,4.3069E4,2.7201E4,7.2E3,4.454E3,3.4694E4,1.8045E4,1.574E4,4.3165E4,3.0201E4,3.665E3,5.2589E4,1.961E3,2.4443E4,5.327E3,2.9237E4,6.185E3,5.33E2,1.9741E4,7.04E3,2.846E3,1.7662E4,5E1,3.4459E4,4.77E2,2.6263E4,2.9909E4,2.202E3,2.66E2,2.93E4,2.1112E4,1.0092E4,1.2684E4,6.339E3,9.692E3,5.863E3,2.268E3,1.1328E4,2.5474E4,1.7826E4,1.243E4,1.1805E4,1.377E3,2.548E3,1.94E2,8.136E3,3.4933E4,2.2752E4,4.449E3,3.91E2,6.809E3,4.319E3,1.35E2,2.1469E4,1.3225E4,5.799E3,1.2246E4,1.0551E4,5.189E3,4.2828E4,3.37E2,2.063E4,9.571E3,3.318E3,3.47E2,4.1268E4,1.1321E4,1.83E2,1.778E3,2.661E3,2.1782E4,5.113E3,2.14E2,3.975E3,2.5262E4,4.236E3,1.949E3,2.35E2,2.98E2,3.591E3,1.615E4,5.243E3,1.797E3,1.394E3,1.452E3],"tree_param":{"num_deleted":"0","num_feature":"24","num_nodes":"127","size_leaf_vector":"1"}},{"base_weights":[-7.042121E-2,-6.6456696E1,9.2092896E1,-1.01091515E2,-2.4111858E1,6.0580498E1,1.6588112E2,-1.16561455E2,-8.181506E1,-4.233884E1,-1.9362272E0,4.236965E1,8.588179E1,1.4302397E2,2.0694759E2,-1.25641846E2,-1.0658905E2,-8.624337E1,-5.707844E1,-5.092229E1,-2.2469652E1,-1.4646714E1,1.6141731E1,2.718698E1,5.615839E1,7.73859E1,1.1251576E2,1.3805254E2,1.9342912E2,1.895745E2,2.4810104E2,-1.2975124E2,-1.1637194E2,-1.0774539E2,-5.111526E1,-9.2586044E1,-7.6120995E1,-6.531106E1,-4.4117325E1,-6.0186527E1,-4.1182037E1,-3.6024628E1,-1.4828192E1,-3.1409472E1,-8.829139E0,7.956754E0,2.7927551E1,1.2607921E0,3.1600977E1,4.790403E1,6.620516E1,6.163571E1,8.567852E1,1.0924339E2,1.85041E2,1.1971076E2,1.5182588E2,2.1042029E2,1.6075383E2,3.3235403E2,1.8562253E2,2.3299678E2,2.788074E2,-6.892251E0,-6.288984E0,-5.85449E0,-2.0125937E0,-5.489623E0,-4.6391373E0,-2.646782E0,1.5360967E1,-4.946978E0,-4.2656436E0,-4.2395515E0,-3.5118463E0,-3.9014466E0,-2.751889E0,-2.2503412E0,4.574302E0,-3.2538934E0,-1.9552354E0,-2.4534824E0,-1.5862632E0,-2.0873652E0,-7.1175367E-1,-1.180122E0,-1.0622668E-1,-3.7135894E0,-1.3838118E0,8.421189E-2,-8.2020634E-1,2.4565728E-1,1.3810757E0,1.6805991E0,5.8947217E-2,-1.260784E0,5.5911756E-1,1.1813368E0,2.1298482E0,2.3558524E0,4.8628154E0,3.2326791E0,7.309645E0,1.2464259E0,3.4213026E0,3.9324384E0,5.0554986E0,6.001535E0,4.866458E0,1.0472752E1,7.211597E0,4.4094405E0,6.5899734E0,4.0200562E0,7.7073402E0,1.000407E1,1.3364896E1,7.6667147E0,1.0675547E1,1.2233256E1,1.8829916E1,7.592031E0,9.637851E0,1.2295249E1,1.0104129E1,1.27630415E1,1.5364713E1],"categories":[],"categories_nodes":[],"categories_segments":[],"categories_sizes":[],"default_left":[0,0,0,0,0,0,0,0,0,0,0,0,0,1,1,0,0,0,0,1,0,0,0,0,0,0,1,0,0,0,0,0,0,0,1,0,0,0,0,1,0,0,0,0,0,1,0,0,0,1,1,0,0,0,0,0,0,0,0,0,1,0,0,0,0,0,0,0,0,0,0,0,0,0,0,0,0,0,0,0,0,0,0,0,0,0,0,0,0,0,0,0,0,0,0,0,0,0,0,0,0,0,0,0,0,0,0,0,0,0,0,0,0,0,0,0,0,0,0,0,0,0,0,0,0,0,0],"id":5,"left_children":[1,3,5,7,9,11,13,15,17,19,21,23,25,27,29,31,33,35,37,39,41,43,45,47,49,51,53,55,57,59,61,63,65,67,69,71,73,75,77,79,81,83,85,87,89,91,93,95,97,99,101,103,105,107,109,111,113,115,117,119,121,123,125,-1,-1,-1,-1,-1,-1,-1,-1,-1,-1,-1,-1,-1,-1,-1,-1,-1,-1,-1,-1,-1,-1,-1,-1,-1,-1,-1,-1,-1,-1,-1,-1,-1,-1,-1,-1,-1,-1,-1,-1,-1,-1,-1,-1,-1,-1,-1,-1,-1,-1,-1,-1,-1,-1,-1,-1,-1,-1,-1,-1,-1,-1,-1,-1],"loss_changes":[4.0970258E9,5.708696E8,6.519396E8,6.384077E7,7.078737E7,9.052333E7,7.872973E7,1.0742912E7,1.0438016E7,1.6392448E7,1.8154898E7,2.391608E7,1.859776E7,1.3481728E7,2.1401856E7,2.353088E6,3.626432E6,5.184192E6,1.541976E6,6.054624E6,3.003281E6,4.523807E6,3.146328E6,6.22276E6,4.961904E6,8.1376E6,4.698832E6,1.2378496E7,2.651632E6,1.1843648E7,4.063744E6,1.366976E6,1.039184E6,1.688448E6,7.7163E5,2.288384E6,1.583312E6,1.152256E6,6.82844E5,3.544824E6,2.439444E6,1.302963E6,2.0672922E6,1.910443E6,2.742864E6,1.1520719E6,2.032572E6,2.0786685E6,4.073352E6,1.272104E6,3.341584E6,5.359E6,4.42224E6,2.43384E6,8.2363E5,8.009664E6,4.632832E6,1.815936E6,6.16652E5,2.107668E6,4.919488E6,2.333824E6,1.886896E6,0E0,0E0,0E0,0E0,0E0,0E0,0E0,0E0,0E0,0E0,0E0,0E0,0E0,0E0,0E0,0E0,0E0,0E0,0E0,0E0,0E0,0E0,0E0,0E0,0E0,0E0,0E0,0E0,0E0,0E0,0E0,0E0,0E0,0E0,0E0,0E0,0E0,0E0,0E0,0E0,0E0,0E0,0E0,0E0,0E0,0E0,0E0,0E0,0E0,0E0,0E0,0E0,0E0,0E0,0E0,0E0,0E0,0E0,0E0,0E0,0E0,0E0,0E0,0E0],"parents":[2147483647,0,0,1,1,2,2,3,3,4,4,5,5,6,6,7,7,8,8,9,9,10,10,11,11,12,12,13,13,14,14,15,15,16,16,17,17,18,18,19,19,20,20,21,21,22,22,23,23,24,24,25,25,26,26,27,27,28,28,29,29,30,30,31,31,32,32,33,33,34,34,35,35,36,36,37,37,38,38,39,39,40,40,41,41,42,42,43,43,44,44,45,45,46,46,47,47,48,48,49,49,50,50,51,51,52,52,53,53,54,54,55,55,56,56,57,57,58,58,59,59,60,60,61,61,62,62],"right_children":[2,4,6,8,10,12,14,16,18,20,22,24,26,28,30,32,34,36,38,40,42,44,46,48,50,52,54,56,58,60,62,64,66,68,70,72,74,76,78,80,82,84,86,88,90,92,94,96,98,100,102,104,106,108,110,112,114,116,118,120,122,124,126,-1,-1,-1,-1,-1,-1,-1,-1,-1,-1,-1,-1,-1,-1,-1,-1,-1,-1,-1,-1,-1,-1,-1,-1,-1,-1,-1,-1,-1,-1,-1,-1,-1,-1,-1,-1,-1,-1,-1,-1,-1,-1,-1,-1,-1,-1,-1,-1,-1,-1,-1,-1,-1,-1,-1,-1,-1,-1,-1,-1,-1,-1,-1,-1],"split_conditions":[2.78E2,1.45E2,3.98E2,1.02E2,2.04E2,3.34E2,4.9091086E2,8.1E1,7.75E1,8.35E1,9.2E1,1.26E2,2.41E2,5.87E2,6.085E2,3.2E1,2.6E2,1.24E2,2.07E2,1.39E2,1.7E2,1.87E2,1.3075E2,2.17E2,3.11E2,2.53E2,6.885E2,4.44E2,5E-1,1.2154929E-1,6.47E2,6.1E1,2.91E2,5.983E1,3.815E2,-2.4492937E-16,-2.4492937E-16,1.2E2,2.1162E2,8.94E1,1.75E2,2.1E2,1.0975E2,1.4125E2,-5E-1,3.265E2,1E0,5.5E1,3.12E2,5.87E2,6.32E2,6.775E1,3.69E2,1.2246469E-16,5E-1,1.54E2,6.749431E1,5.37E2,5.57E2,6.1E2,3.235E2,5E-1,9.022E1,-6.892251E0,-6.288984E0,-5.85449E0,-2.0125937E0,-5.489623E0,-4.6391373E0,-2.646782E0,1.5360967E1,-4.946978E0,-4.2656436E0,-4.2395515E0,-3.5118463E0,-3.9014466E0,-2.751889E0,-2.2503412E0,4.574302E0,-3.2538934E0,-1.9552354E0,-2.4534824E0,-1.5862632E0,-2.0873652E0,-7.1175367E-1,-1.180122E0,-1.0622668E-1,-3.7135894E0,-1.3838118E0,8.421189E-2,-8.2020634E-1,2.4565728E-1,1.3810757E0,1.6805991E0,5.8947217E-2,-1.260784E0,5.5911756E-1,1.1813368E0,2.1298482E0,2.3558524E0,4.8628154E0,3.2326791E0,7.309645E0,1.2464259E0,3.4213026E0,3.9324384E0,5.0554986E0,6.001535E0,4.866458E0,1.0472752E1,7.211597E0,4.4094405E0,6.5899734E0,4.0200562E0,7.7073402E0,1.000407E1,1.3364896E1,7.6667147E0,1.0675547E1,1.2233256E1,1.8829916E1,7.592031E0,9.637851E0,1.2295249E1,1.0104129E1,1.27630415E1,1.5364713E1],"split_indices":[6,6,6,6,6,6,6,6,0,0,0,0,0,1,1,0,10,6,1,1,6,10,0,10,6,1,1,6,22,5,6,6,10,0,1,22,22,10,14,5,6,10,0,18,20,1,22,0,6,1,1,0,6,22,22,0,0,10,10,6,1,22,2,0,0,0,0,0,0,0,0,0,0,0,0,0,0,0,0,0,0,0,0,0,0,0,0,0,0,0,0,0,0,0,0,0,0,0,0,0,0,0,0,0,0,0,0,0,0,0,0,0,0,0,0,0,0,0,0,0,0,0,0,0,0,0,0],"split_type":[0,0,0,0,0,0,0,0,0,0,0,0,0,0,0,0,0,0,0,0,0,0,0,0,0,0,0,0,0,0,0,0,0,0,0,0,0,0,0,0,0,0,0,0,0,0,0,0,0,0,0,0,0,0,0,0,0,0,0,0,0,0,0,0,0,0,0,0,0,0,0,0,0,0,0,0,0,0,0,0,0,0,0,0,0,0,0,0,0,0,0,0,0,0,0,0,0,0,0,0,0,0,0,0,0,0,0,0,0,0,0,0,0,0,0,0,0,0,0,0,0,0,0,0,0,0,0],"sum_hessian":[6.69624E5,3.89246E5,2.80378E5,2.14115E5,1.75131E5,1.96473E5,8.3905E4,1.18783E5,9.5332E4,9.6123E4,7.9008E4,1.14246E5,8.2227E4,5.3906E4,2.9999E4,6.2166E4,5.6617E4,8.0855E4,1.4477E4,6.7124E4,2.8999E4,4.6391E4,3.2617E4,5.4376E4,5.987E4,6.2344E4,1.9883E4,4.907E4,4.836E3,2.1098E4,8.901E3,4.3063E4,1.9103E4,5.546E4,1.157E3,4.9703E4,3.1152E4,8.851E3,5.626E3,3.44E4,3.2724E4,1.0453E4,1.8546E4,1.1951E4,3.444E4,1.925E4,1.3367E4,7.911E3,4.6465E4,3.287E4,2.7E4,2.1506E4,4.0838E4,1.9027E4,8.56E2,2.1049E4,2.8021E4,3.178E3,1.658E3,5.66E2,2.0532E4,5.972E3,2.929E3,1.4164E4,2.8899E4,1.8924E4,1.79E2,4.878E4,6.68E3,1.152E3,5E0,2.6522E4,2.3181E4,1.2589E4,1.8563E4,3.952E3,4.899E3,5.59E3,3.6E1,2.792E4,6.48E3,1.784E4,1.4884E4,8.278E3,2.175E3,1.0969E4,7.577E3,9.56E2,1.0995E4,1.4423E4,2.0017E4,1.6671E4,2.579E3,1.1024E4,2.343E3,2.156E3,5.755E3,2.6935E4,1.953E4,3.2356E4,5.14E2,2.6488E4,5.12E2,3.358E3,1.8148E4,2.8061E4,1.2777E4,9.981E3,9.046E3,5.33E2,3.23E2,5.837E3,1.5212E4,8.83E2,2.7138E4,2.693E3,4.85E2,1.457E3,2.01E2,1.92E2,3.74E2,3.584E3,1.6948E4,4.208E3,1.764E3,1.609E3,1.32E3],"tree_param":{"num_deleted":"0","num_feature":"24","num_nodes":"127","size_leaf_vector":"1"}},{"base_weights":[4.6552382E-2,-6.7726814E1,8.160497E1,-9.840857E1,-3.0838108E1,4.977396E1,1.5116035E2,-1.116877E2,-8.167055E1,-4.976267E1,-1.373918E1,3.1401985E1,7.357275E1,1.3025551E2,1.9671057E2,-1.2070108E2,-1.0353654E2,-8.635927E1,-6.3412376E1,-5.5285576E1,-2.5103193E1,-2.186015E1,1.0952471E1,1.5472295E1,4.7436317E1,5.492975E1,8.709182E1,1.0994985E2,1.4460965E2,1.8156993E2,2.3958456E2,-1.23985016E2,-1.1043284E2,-1.04444275E2,-4.4450573E1,-9.303559E1,-7.930441E1,-7.0581985E1,-3.76039E1,-6.966186E1,-4.9406105E1,-3.2695244E1,1.317928E1,-3.8844944E1,-1.6869429E1,-2.0449038E0,2.660342E1,-6.6961923E0,2.0819847E1,3.5506775E1,5.2430595E1,6.73595E1,4.6320957E1,8.358474E1,1.2269434E2,9.674641E1,1.346535E2,1.3890816E2,1.786614E2,1.6910434E2,2.1266893E2,3.0014392E2,2.3100299E2,-6.546183E0,-6.005487E0,-5.58234E0,-2.8144863E0,-5.3266497E0,-4.800287E0,-3.3549898E0,4.1548046E-1,-4.922724E0,-4.318436E0,-4.108103E0,-2.7802293E0,-3.8397236E0,-3.033802E0,-1.995704E0,4.8008432E0,-3.8209698E0,-3.0767686E0,-2.823258E0,-1.934987E0,-1.946831E0,-8.8999027E-1,4.1658336E-1,3.575852E0,-1.3806002E0,-2.6863086E0,-1.0057557E0,4.0601864E-1,2.6315868E-1,-6.8161345E-1,1.1162044E0,3.3181446E0,-6.181872E-1,1.9633133E0,1.2782458E0,2.6295388E-1,1.0952066E0,2.2028313E0,2.4355035E0,3.2375767E0,3.6393209E0,1.5221449E0,2.0250049E0,3.2081242E0,3.9653676E0,4.954218E0,6.533059E0,4.537809E0,1.7941084E0,4.9546885E0,6.3848405E0,8.781145E0,3.6630018E0,7.078228E0,8.557708E0,1.0994537E1,7.2826285E0,9.017322E0,1.0210472E1,1.2165023E1,2.0015291E1,1.3968271E1,1.0761821E1,1.4074519E1],"categories":[],"categories_nodes":[],"categories_segments":[],"categories_sizes":[],"default_left":[0,0,0,0,0,0,0,0,0,0,0,0,0,0,0,0,0,0,0,0,0,0,0,0,0,0,0,0,0,0,0,0,0,0,0,0,0,0,0,0,0,0,0,0,0,0,0,0,0,0,0,0,0,0,0,0,0,0,0,0,0,0,0,0,0,0,0,0,0,0,0,0,0,0,0,0,0,0,0,0,0,0,0,0,0,0,0,0,0,0,0,0,0,0,0,0,0,0,0,0,0,0,0,0,0,0,0,0,0,0,0,0,0,0,0,0,0,0,0,0,0,0,0,0,0,0,0],"id":6,"left_children":[1,3,5,7,9,11,13,15,17,19,21,23,25,27,29,31,33,35,37,39,41,43,45,47,49,51,53,55,57,59,61,63,65,67,69,71,73,75,77,79,81,83,85,87,89,91,93,95,97,99,101,103,105,107,109,111,113,115,117,119,121,123,125,-1,-1,-1,-1,-1,-1,-1,-1,-1,-1,-1,-1,-1,-1,-1,-1,-1,-1,-1,-1,-1,-1,-1,-1,-1,-1,-1,-1,-1,-1,-1,-1,-1,-1,-1,-1,-1,-1,-1,-1,-1,-1,-1,-1,-1,-1,-1,-1,-1,-1,-1,-1,-1,-1,-1,-1,-1,-1,-1,-1,-1,-1,-1,-1],"loss_changes":[3.69972E9,4.137404E8,6.7254886E8,4.434829E7,5.3712304E7,9.111744E7,9.078861E7,8.163328E6,7.552768E6,1.072904E7,1.7486196E7,3.0039944E7,2.2877824E7,1.9038464E7,1.9430144E7,1.768E6,3.129856E6,3.301312E6,3.336144E6,5.43752E6,4.191205E6,5.561796E6,4.390496E6,6.994421E6,3.49028E6,4.08084E6,6.56064E6,8.819104E6,7.41024E6,8.560128E6,3.997824E6,1.060544E6,8.35872E5,1.004288E6,1.0593071E6,1.295168E6,2.309072E6,8.64288E5,1.215433E6,1.021216E6,3.450912E6,1.117991E6,6.74445E5,2.489532E6,4.11401E6,9.986344E5,1.6645685E6,2.987577E6,3.509628E6,2.011036E6,1.89068E6,3.126144E6,2.339496E6,3.16848E6,1.188368E6,2.518096E6,2.66496E6,5.710912E6,1.661312E6,4.14832E6,1.59344E6,1.902784E6,5.399264E6,0E0,0E0,0E0,0E0,0E0,0E0,0E0,0E0,0E0,0E0,0E0,0E0,0E0,0E0,0E0,0E0,0E0,0E0,0E0,0E0,0E0,0E0,0E0,0E0,0E0,0E0,0E0,0E0,0E0,0E0,0E0,0E0,0E0,0E0,0E0,0E0,0E0,0E0,0E0,0E0,0E0,0E0,0E0,0E0,0E0,0E0,0E0,0E0,0E0,0E0,0E0,0E0,0E0,0E0,0E0,0E0,0E0,0E0,0E0,0E0,0E0,0E0,0E0,0E0],"parents":[2147483647,0,0,1,1,2,2,3,3,4,4,5,5,6,6,7,7,8,8,9,9,10,10,11,11,12,12,13,13,14,14,15,15,16,16,17,17,18,18,19,19,20,20,21,21,22,22,23,23,24,24,25,25,26,26,27,27,28,28,29,29,30,30,31,31,32,32,33,33,34,34,35,35,36,36,37,37,38,38,39,39,40,40,41,41,42,42,43,43,44,44,45,45,46,46,47,47,48,48,49,49,50,50,51,51,52,52,53,53,54,54,55,55,56,56,57,57,58,58,59,59,60,60,61,61,62,62],"right_children":[2,4,6,8,10,12,14,16,18,20,22,24,26,28,30,32,34,36,38,40,42,44,46,48,50,52,54,56,58,60,62,64,66,68,70,72,74,76,78,80,82,84,86,88,90,92,94,96,98,100,102,104,106,108,110,112,114,116,118,120,122,124,126,-1,-1,-1,-1,-1,-1,-1,-1,-1,-1,-1,-1,-1,-1,-1,-1,-1,-1,-1,-1,-1,-1,-1,-1,-1,-1,-1,-1,-1,-1,-1,-1,-1,-1,-1,-1,-1,-1,-1,-1,-1,-1,-1,-1,-1,-1,-1,-1,-1,-1,-1,-1,-1,-1,-1,-1,-1,-1,-1,-1,-1,-1,-1,-1],"split_conditions":[2.55E2,1.37E2,3.8577585E2,9.9E1,1.83E2,3.24E2,4.9091086E2,7.616E1,6.749431E1,5E-1,1.06E2,1.205E2,1.55E2,4.25E2,6.1E2,3.25E1,2.706316E2,-2.4492937E-16,5E-1,-2.4492937E-16,1.0975E2,4.25E1,5E-1,2.12E2,3.04E2,1.2246469E-16,3.0467E2,2.51E2,3.5E2,3.38E2,-5E-1,6.1E1,8.660254E-1,1.11E2,8.660254E-1,1.15E2,5E-1,1.24E2,1.75E2,1.6E2,1.64E2,8.660254E-1,6.540275E1,-2.5881904E-1,8.660254E-1,-1.8369701E-16,1.8275E2,8.660254E-1,7.0710677E-1,5E-1,1.75E2,2.46E2,1.83E0,1E0,8.660254E-1,2.45E2,4.05E2,6.749431E1,5.07E2,1.848E1,5.57E2,3.145E1,5.2075E2,-6.546183E0,-6.005487E0,-5.58234E0,-2.8144863E0,-5.3266497E0,-4.800287E0,-3.3549898E0,4.1548046E-1,-4.922724E0,-4.318436E0,-4.108103E0,-2.7802293E0,-3.8397236E0,-3.033802E0,-1.995704E0,4.8008432E0,-3.8209698E0,-3.0767686E0,-2.823258E0,-1.934987E0,-1.946831E0,-8.8999027E-1,4.1658336E-1,3.575852E0,-1.3806002E0,-2.6863086E0,-1.0057557E0,4.0601864E-1,2.6315868E-1,-6.8161345E-1,1.1162044E0,3.3181446E0,-6.181872E-1,1.9633133E0,1.2782458E0,2.6295388E-1,1.0952066E0,2.2028313E0,2.4355035E0,3.2375767E0,3.6393209E0,1.5221449E0,2.0250049E0,3.2081242E0,3.9653676E0,4.954218E0,6.533059E0,4.537809E0,1.7941084E0,4.9546885E0,6.3848405E0,8.781145E0,3.6630018E0,7.078228E0,8.557708E0,1.0994537E1,7.2826285E0,9.017322E0,1.0210472E1,1.2165023E1,2.0015291E1,1.3968271E1,1.0761821E1,1.4074519E1],"split_indices":[6,6,6,6,6,6,6,6,0,23,0,0,0,6,6,0,10,22,23,22,0,0,23,10,6,22,0,0,0,0,22,6,23,10,23,6,23,6,0,6,6,23,19,20,23,23,0,23,21,23,0,16,3,23,22,10,0,0,10,4,10,2,0,0,0,0,0,0,0,0,0,0,0,0,0,0,0,0,0,0,0,0,0,0,0,0,0,0,0,0,0,0,0,0,0,0,0,0,0,0,0,0,0,0,0,0,0,0,0,0,0,0,0,0,0,0,0,0,0,0,0,0,0,0,0,0,0],"split_type":[0,0,0,0,0,0,0,0,0,0,0,0,0,0,0,0,0,0,0,0,0,0,0,0,0,0,0,0,0,0,0,0,0,0,0,0,0,0,0,0,0,0,0,0,0,0,0,0,0,0,0,0,0,0,0,0,0,0,0,0,0,0,0,0,0,0,0,0,0,0,0,0,0,0,0,0,0,0,0,0,0,0,0,0,0,0,0,0,0,0,0,0,0,0,0,0,0,0,0,0,0,0,0,0,0,0,0,0,0,0,0,0,0,0,0,0,0,0,0,0,0,0,0,0,0,0,0],"sum_hessian":[6.69329E5,3.65558E5,3.03771E5,1.99568E5,1.6599E5,2.08401E5,9.537E4,1.11279E5,8.8289E4,7.8788E4,8.7202E4,1.17611E5,9.079E4,6.5372E4,2.9998E4,5.2838E4,5.8441E4,7.0246E4,1.8043E4,6.437E4,1.4418E4,6.562E4,2.1582E4,5.8999E4,5.8612E4,3.8165E4,5.2625E4,2.7077E4,3.8295E4,2.2173E4,7.825E3,4.0026E4,1.2812E4,5.7556E4,8.85E2,3.6085E4,3.4161E4,1.4119E4,3.924E3,1.8681E4,4.5689E4,1.2032E4,2.386E3,1.4901E4,5.0719E4,1.1791E4,9.791E3,1.1466E4,4.7533E4,1.7299E4,4.1313E4,1.5614E4,2.2551E4,4.7909E4,4.716E3,1.7649E4,9.428E3,3.2807E4,5.488E3,1.5833E4,6.34E3,9.67E2,6.858E3,1.4332E4,2.5694E4,1.253E4,2.82E2,4.6127E4,1.1429E4,6.19E2,2.66E2,1.9898E4,1.6187E4,3.0483E4,3.678E3,8.673E3,5.446E3,3.858E3,6.6E1,1.0195E4,8.486E3,2.7532E4,1.8157E4,8.478E3,3.554E3,2.204E3,1.82E2,8.493E3,6.408E3,4.4889E4,5.83E3,7.231E3,4.56E3,8.841E3,9.5E2,1.0208E4,1.258E3,3.6425E4,1.1108E4,6.678E3,1.0621E4,3.1735E4,9.578E3,1.3612E4,2.002E3,1.7006E4,5.545E3,3.7552E4,1.0357E4,3.772E3,9.44E2,6.56E2,1.6993E4,8.063E3,1.365E3,1.277E3,3.153E4,4.647E3,8.41E2,5.135E3,1.0698E4,4.974E3,1.366E3,1.63E2,8.04E2,5.23E3,1.628E3],"tree_param":{"num_deleted":"0","num_feature":"24","num_nodes":"127","size_leaf_vector":"1"}},{"base_weights":[-2.9578922E-2,-6.461675E1,7.6388535E1,-9.334468E1,-3.018008E1,4.6497772E1,1.4266422E2,-1.0568711E2,-7.744571E1,-4.7353874E1,-1.374185E1,3.1132254E1,7.410195E1,1.2306558E2,1.850622E2,-1.12911514E2,-9.6553604E1,-8.103403E1,-5.109073E1,-5.4656616E1,-2.6091402E1,-2.202592E1,1.1582018E1,1.2299926E1,4.379981E1,5.337197E1,8.3203186E1,1.0345199E2,1.3690933E2,1.6780505E2,2.2222932E2,-1.17518745E2,-1.0510757E2,-9.747375E1,-3.9431595E1,-8.803579E1,-7.3871445E1,-5.9912327E1,-2.2117706E1,-6.315255E1,-4.520809E1,-3.5651115E1,-4.308551E0,-3.864541E1,-1.675249E1,4.505269E0,3.7604507E1,6.345531E0,3.379729E1,4.909159E1,1.9049303E1,3.394518E1,6.131425E1,7.835999E1,1.1456859E2,8.882338E1,1.2702462E2,1.3221161E2,1.859976E2,3.0517847E2,1.6400133E2,2.0426405E2,2.4670067E2,-6.2828207E0,-5.7068963E0,-5.3077097E0,-2.2981431E0,-4.978045E0,-4.0846934E0,-2.1775777E0,2.1116995E1,-4.682657E0,-3.9805043E0,-3.8449776E0,-2.5134246E0,-3.3268216E0,-2.0469162E0,-1.231968E0,9.327553E0,-3.378008E0,-2.1423023E0,-2.4048822E0,-1.2046465E0,-1.9657633E0,1.3135953E-1,-9.608399E-1,8.084359E-1,-2.9260085E0,-1.4700986E0,-9.8671657E-1,3.4534857E-1,-3.1445125E-1,7.2923034E-1,1.5258416E0,3.9153447E0,-1.8422481E-1,8.554252E-1,2.2052422E0,7.959546E-1,2.2331357E0,3.6794777E0,-5.227535E-1,1.8047882E0,1.3551356E0,4.450469E0,2.935271E0,4.8241878E0,3.6994152E0,4.6924863E0,5.3518963E0,8.502624E0,3.4647934E0,4.8993444E0,6.0222216E0,8.529631E0,3.223098E0,6.7369E0,9.64351E0,6.1647134E0,1.9146986E1,1.2034705E1,6.550361E0,8.581239E0,9.146534E0,1.1258157E1,1.8860407E1,1.211648E1],"categories":[],"categories_nodes":[],"categories_segments":[],"categories_sizes":[],"default_left":[0,0,0,0,0,0,0,0,0,0,0,0,0,0,1,0,0,0,0,1,0,0,0,0,0,0,1,0,1,0,0,0,0,0,1,1,0,0,0,1,0,1,0,0,0,0,0,0,0,0,0,1,1,0,0,0,1,0,0,0,1,0,0,0,0,0,0,0,0,0,0,0,0,0,0,0,0,0,0,0,0,0,0,0,0,0,0,0,0,0,0,0,0,0,0,0,0,0,0,0,0,0,0,0,0,0,0,0,0,0,0,0,0,0,0,0,0,0,0,0,0,0,0,0,0,0,0],"id":7,"left_children":[1,3,5,7,9,11,13,15,17,19,21,23,25,27,29,31,33,35,37,39,41,43,45,47,49,51,53,55,57,59,61,63,65,67,69,71,73,75,77,79,81,83,85,87,89,91,93,95,97,99,101,103,105,107,109,111,113,115,117,119,121,123,125,-1,-1,-1,-1,-1,-1,-1,-1,-1,-1,-1,-1,-1,-1,-1,-1,-1,-1,-1,-1,-1,-1,-1,-1,-1,-1,-1,-1,-1,-1,-1,-1,-1,-1,-1,-1,-1,-1,-1,-1,-1,-1,-1,-1,-1,-1,-1,-1,-1,-1,-1,-1,-1,-1,-1,-1,-1,-1,-1,-1,-1,-1,-1,-1],"loss_changes":[3.3024102E9,3.5873306E8,6.071356E8,3.878592E7,4.655853E7,8.958682E7,7.913293E7,7.332736E6,8.166976E6,1.2522528E7,1.7678392E7,3.236984E7,1.424544E7,1.7675456E7,1.9276544E7,2.221696E6,2.579968E6,3.807328E6,2.645804E6,4.81648E6,4.294128E6,5.56434E6,3.8250908E6,6.9848255E6,1.062408E7,3.553752E6,7.96384E6,9.285824E6,8.781824E6,1.0697408E7,4.14592E6,1.060288E6,1.42352E6,1.585216E6,1.5042305E6,1.812384E6,2.68336E6,9.95098E5,1.2774515E6,2.826208E6,1.733328E6,2.010272E6,1.9208286E6,2.807958E6,3.40087E6,1.7770022E6,1.278774E6,4.613322E6,2.180441E6,7.248E6,7.187967E6,2.5182135E6,1.495112E6,3.071936E6,2.914136E6,2.970776E6,2.938624E6,5.957504E6,1.412528E6,2.680784E6,5.012096E6,2.415408E6,2.210976E6,0E0,0E0,0E0,0E0,0E0,0E0,0E0,0E0,0E0,0E0,0E0,0E0,0E0,0E0,0E0,0E0,0E0,0E0,0E0,0E0,0E0,0E0,0E0,0E0,0E0,0E0,0E0,0E0,0E0,0E0,0E0,0E0,0E0,0E0,0E0,0E0,0E0,0E0,0E0,0E0,0E0,0E0,0E0,0E0,0E0,0E0,0E0,0E0,0E0,0E0,0E0,0E0,0E0,0E0,0E0,0E0,0E0,0E0,0E0,0E0,0E0,0E0,0E0,0E0],"parents":[2147483647,0,0,1,1,2,2,3,3,4,4,5,5,6,6,7,7,8,8,9,9,10,10,11,11,12,12,13,13,14,14,15,15,16,16,17,17,18,18,19,19,20,20,21,21,22,22,23,23,24,24,25,25,26,26,27,27,28,28,29,29,30,30,31,31,32,32,33,33,34,34,35,35,36,36,37,37,38,38,39,39,40,40,41,41,42,42,43,43,44,44,45,45,46,46,47,47,48,48,49,49,50,50,51,51,52,52,53,53,54,54,55,55,56,56,57,57,58,58,59,59,60,60,61,61,62,62],"right_children":[2,4,6,8,10,12,14,16,18,20,22,24,26,28,30,32,34,36,38,40,42,44,46,48,50,52,54,56,58,60,62,64,66,68,70,72,74,76,78,80,82,84,86,88,90,92,94,96,98,100,102,104,106,108,110,112,114,116,118,120,122,124,126,-1,-1,-1,-1,-1,-1,-1,-1,-1,-1,-1,-1,-1,-1,-1,-1,-1,-1,-1,-1,-1,-1,-1,-1,-1,-1,-1,-1,-1,-1,-1,-1,-1,-1,-1,-1,-1,-1,-1,-1,-1,-1,-1,-1,-1,-1,-1,-1,-1,-1,-1,-1,-1,-1,-1,-1,-1,-1,-1,-1,-1,-1,-1,-1],"split_conditions":[2.52E2,1.36E2,3.8577585E2,9.810204E1,1.83E2,1.536E2,4.9091086E2,8.1E1,8.1E1,8.15E1,1.06E2,3.07E2,3.24E2,4.25E2,5.87E2,2.9E1,2.706316E2,-2.4492937E-16,5E-1,1.3225E2,5E-1,4.35E1,8.660254E-1,8.660254E-1,1.728E2,5E-1,4.52E2,2.41E2,5.87E2,1.2154929E-1,5.37E2,5.95E1,8.660254E-1,5.983E1,3.815E2,1.0475E2,5E-1,2.4825E2,2.1975E2,8.335E1,5E-1,3.44E2,1.0975E2,9.075E1,8.660254E-1,2.89E2,1.75E2,2.16E2,1.2625E2,3.5E2,1.035E2,5.525E2,4.69E2,1E0,7.25E2,2.65E2,6.085E2,6.65E1,8.660254E-1,8.660254E-1,3.235E2,7.25E2,2.1872347E-7,-6.2828207E0,-5.7068963E0,-5.3077097E0,-2.2981431E0,-4.978045E0,-4.0846934E0,-2.1775777E0,2.1116995E1,-4.682657E0,-3.9805043E0,-3.8449776E0,-2.5134246E0,-3.3268216E0,-2.0469162E0,-1.231968E0,9.327553E0,-3.378008E0,-2.1423023E0,-2.4048822E0,-1.2046465E0,-1.9657633E0,1.3135953E-1,-9.608399E-1,8.084359E-1,-2.9260085E0,-1.4700986E0,-9.8671657E-1,3.4534857E-1,-3.1445125E-1,7.2923034E-1,1.5258416E0,3.9153447E0,-1.8422481E-1,8.554252E-1,2.2052422E0,7.959546E-1,2.2331357E0,3.6794777E0,-5.227535E-1,1.8047882E0,1.3551356E0,4.450469E0,2.935271E0,4.8241878E0,3.6994152E0,4.6924863E0,5.3518963E0,8.502624E0,3.4647934E0,4.8993444E0,6.0222216E0,8.529631E0,3.223098E0,6.7369E0,9.64351E0,6.1647134E0,1.9146986E1,1.2034705E1,6.550361E0,8.581239E0,9.146534E0,1.1258157E1,1.8860407E1,1.211648E1],"split_indices":[7,7,7,7,7,0,7,7,0,0,0,7,7,7,1,0,10,22,23,1,23,0,23,23,15,23,1,0,1,5,10,17,23,0,1,1,23,1,12,5,23,1,0,1,23,1,0,1,15,7,0,1,1,23,1,1,1,0,22,23,1,1,19,0,0,0,0,0,0,0,0,0,0,0,0,0,0,0,0,0,0,0,0,0,0,0,0,0,0,0,0,0,0,0,0,0,0,0,0,0,0,0,0,0,0,0,0,0,0,0,0,0,0,0,0,0,0,0,0,0,0,0,0,0,0,0,0],"split_type":[0,0,0,0,0,0,0,0,0,0,0,0,0,0,0,0,0,0,0,0,0,0,0,0,0,0,0,0,0,0,0,0,0,0,0,0,0,0,0,0,0,0,0,0,0,0,0,0,0,0,0,0,0,0,0,0,0,0,0,0,0,0,0,0,0,0,0,0,0,0,0,0,0,0,0,0,0,0,0,0,0,0,0,0,0,0,0,0,0,0,0,0,0,0,0,0,0,0,0,0,0,0,0,0,0,0,0,0,0,0,0,0,0,0,0,0,0,0,0,0,0,0,0,0,0,0,0],"sum_hessian":[6.69094E5,3.62617E5,3.06477E5,1.97694E5,1.64923E5,2.11218E5,9.5259E4,1.11292E5,8.6402E4,8.0656E4,8.4267E4,1.3569E5,7.5528E4,6.5148E4,3.0111E4,6.2134E4,4.9158E4,7.6046E4,1.0356E4,6.0035E4,2.0621E4,6.3496E4,2.0771E4,5.4568E4,8.1122E4,2.3045E4,5.2483E4,2.696E4,3.8188E4,2.0567E4,9.544E3,3.906E4,2.3074E4,4.8378E4,7.8E2,3.8449E4,3.7597E4,7.938E3,2.418E3,3.1608E4,2.8427E4,1.4331E4,6.29E3,1.5293E4,4.8203E4,1.6331E4,4.44E3,4.2733E4,1.1835E4,6.6832E4,1.429E4,6.689E3,1.6356E4,4.5466E4,7.017E3,1.6639E4,1.0321E4,3.4856E4,3.332E3,5.52E2,2.0015E4,5.509E3,4.035E3,1.1454E4,2.7606E4,2.2672E4,4.02E2,4.2722E4,5.656E3,7.74E2,6E0,2.3063E4,1.5386E4,3.332E4,4.277E3,5.882E3,2.056E3,2.39E3,2.8E1,2.5969E4,5.639E3,2.5004E4,3.423E3,1.3079E4,1.252E3,3.64E3,2.65E3,4.853E3,1.044E4,4.2808E4,5.395E3,7.886E3,8.445E3,3.783E3,6.57E2,2.212E4,2.0613E4,7.506E3,4.329E3,5.6602E4,1.023E4,5.233E3,9.057E3,5.951E3,7.38E2,1.5229E4,1.127E3,3.5463E4,1.0003E4,6.181E3,8.36E2,5.317E3,1.1322E4,8.97E3,1.351E3,1.254E3,3.3602E4,3.001E3,3.31E2,2.48E2,3.04E2,3.76E3,1.6255E4,2.731E3,2.778E3,1.28E2,3.907E3],"tree_param":{"num_deleted":"0","num_feature":"24","num_nodes":"127","size_leaf_vector":"1"}},{"base_weights":[3.6918033E-2,-5.7029533E1,7.917852E1,-8.480471E1,-1.8284082E1,5.3254776E1,1.4561226E2,-9.809649E1,-6.565893E1,-3.4082554E1,-1.5369897E0,3.782921E1,7.7571E1,1.3127728E2,1.9268723E2,-1.07728745E2,-8.976775E1,-7.279828E1,-5.393066E1,-4.2055508E1,-1.7740002E1,-1.34818535E1,1.3386034E1,2.4777689E1,5.090235E1,6.9373245E1,1.0011013E2,1.19288765E2,1.6003882E2,1.779658E2,2.290065E2,-1.1180456E2,-1.0059292E2,-9.173959E1,-5.2819782E1,-7.933509E1,-6.6203606E1,-6.2937366E1,-4.0080807E1,-4.8264626E1,-2.9857063E1,-2.6675238E1,-2.8346076E0,-4.7427505E1,-1.07207365E1,6.2890787E0,2.4823784E1,2.9942852E1,1.3182362E0,4.2102985E1,5.972036E1,5.0685383E1,7.484908E1,9.31803E1,1.2957031E2,1.02609764E2,1.3269604E2,1.5673848E2,2.0651215E2,1.5954091E2,2.018765E2,3.532891E2,2.2204523E2,-5.9397326E0,-5.4154825E0,-5.104412E0,-3.0487723E0,-4.8139057E0,-4.3791547E0,-2.9394681E0,1.5910058E0,-4.244535E0,-3.7710137E0,-3.5209153E0,-2.6243637E0,-3.6266007E0,-2.8928266E0,-2.1414487E0,-1.0798736E-1,-3.9449914E0,-2.3220992E0,-1.7527131E0,-7.3996824E-1,-1.5408205E0,-7.488635E-1,-6.006524E-1,4.1159E-1,-3.6613023E0,-1.7737807E0,-2.8575358E-1,-1.3349017E0,1.8610431E-1,1.5300786E0,1.0396613E0,2.5650425E0,5.85561E-1,1.8978058E0,-1.0569501E0,8.5217935E-1,2.0324578E0,3.1514442E0,2.7491648E0,3.7312927E0,2.9906805E0,3.1662485E-1,3.4460857E0,4.4837E0,4.095277E0,5.048694E0,6.281207E0,1.4293891E1,3.0927536E0,5.5015545E0,6.8339624E0,5.4279814E0,7.0823793E0,8.269222E0,1.139796E1,6.3611894E0,7.224106E0,9.521991E0,9.7805395E0,1.2702879E1,1.8450838E1,1.5452448E-1,1.0363386E1,1.3279216E1],"categories":[],"categories_nodes":[],"categories_segments":[],"categories_sizes":[],"default_left":[0,0,0,0,0,0,0,0,0,0,0,0,0,0,0,0,0,0,0,0,0,0,0,0,0,0,0,0,0,0,0,0,0,0,0,0,1,0,0,0,1,0,0,0,0,0,0,0,0,0,0,0,0,0,0,0,0,0,0,0,0,0,0,0,0,0,0,0,0,0,0,0,0,0,0,0,0,0,0,0,0,0,0,0,0,0,0,0,0,0,0,0,0,0,0,0,0,0,0,0,0,0,0,0,0,0,0,0,0,0,0,0,0,0,0,0,0,0,0,0,0,0,0,0,0,0,0],"id":8,"left_children":[1,3,5,7,9,11,13,15,17,19,21,23,25,27,29,31,33,35,37,39,41,43,45,47,49,51,53,55,57,59,61,63,65,67,69,71,73,75,77,79,81,83,85,87,89,91,93,95,97,99,101,103,105,107,109,111,113,115,117,119,121,123,125,-1,-1,-1,-1,-1,-1,-1,-1,-1,-1,-1,-1,-1,-1,-1,-1,-1,-1,-1,-1,-1,-1,-1,-1,-1,-1,-1,-1,-1,-1,-1,-1,-1,-1,-1,-1,-1,-1,-1,-1,-1,-1,-1,-1,-1,-1,-1,-1,-1,-1,-1,-1,-1,-1,-1,-1,-1,-1,-1,-1,-1,-1,-1,-1],"loss_changes":[3.020996E9,4.1825626E8,4.8263834E8,5.760205E7,4.2936276E7,7.561069E7,5.305728E7,1.0709376E7,7.763456E6,1.087996E7,1.4042456E7,2.1044224E7,1.4450208E7,2.0773888E7,9.775808E6,1.790592E6,5.216064E6,2.480352E6,4.376528E6,4.249472E6,3.646879E6,4.100557E6,2.842773E6,7.479292E6,4.778768E6,5.867904E6,4.247808E6,9.50496E6,2.688224E6,5.725344E6,4.500032E6,9.5024E5,1.32856E6,1.274816E6,1.837498E6,6.2328E5,1.655976E6,1.032688E6,1.441802E6,2.072976E6,1.481214E6,8.28888E5,1.0426376E6,1.012154E6,3.236116E6,1.3488158E6,1.430013E6,7.390056E6,3.934075E6,9.35852E5,2.168864E6,5.265274E6,3.893056E6,1.4764E6,2.41346E6,5.731664E6,2.253472E6,2.138048E6,1.96568E6,3.4092E6,1.808704E6,1.535536E6,3.170928E6,0E0,0E0,0E0,0E0,0E0,0E0,0E0,0E0,0E0,0E0,0E0,0E0,0E0,0E0,0E0,0E0,0E0,0E0,0E0,0E0,0E0,0E0,0E0,0E0,0E0,0E0,0E0,0E0,0E0,0E0,0E0,0E0,0E0,0E0,0E0,0E0,0E0,0E0,0E0,0E0,0E0,0E0,0E0,0E0,0E0,0E0,0E0,0E0,0E0,0E0,0E0,0E0,0E0,0E0,0E0,0E0,0E0,0E0,0E0,0E0,0E0,0E0,0E0,0E0],"parents":[2147483647,0,0,1,1,2,2,3,3,4,4,5,5,6,6,7,7,8,8,9,9,10,10,11,11,12,12,13,13,14,14,15,15,16,16,17,17,18,18,19,19,20,20,21,21,22,22,23,23,24,24,25,25,26,26,27,27,28,28,29,29,30,30,31,31,32,32,33,33,34,34,35,35,36,36,37,37,38,38,39,39,40,40,41,41,42,42,43,43,44,44,45,45,46,46,47,47,48,48,49,49,50,50,51,51,52,52,53,53,54,54,55,55,56,56,57,57,58,58,59,59,60,60,61,61,62,62],"right_children":[2,4,6,8,10,12,14,16,18,20,22,24,26,28,30,32,34,36,38,40,42,44,46,48,50,52,54,56,58,60,62,64,66,68,70,72,74,76,78,80,82,84,86,88,90,92,94,96,98,100,102,104,106,108,110,112,114,116,118,120,122,124,126,-1,-1,-1,-1,-1,-1,-1,-1,-1,-1,-1,-1,-1,-1,-1,-1,-1,-1,-1,-1,-1,-1,-1,-1,-1,-1,-1,-1,-1,-1,-1,-1,-1,-1,-1,-1,-1,-1,-1,-1,-1,-1,-1,-1,-1,-1,-1,-1,-1,-1,-1,-1,-1,-1,-1,-1,-1,-1,-1,-1,-1,-1,-1,-1],"split_conditions":[2.78E2,1.52E2,4.06E2,1.07E2,2.04E2,3.3976923E2,5.22E2,8.1E1,5.7E1,8.15E1,8.8E1,1.325E2,2.41E2,3.15E2,6.47E2,2.9E1,2.38E2,1.25E2,1.54E2,2.05E2,2.05E2,1.6979167E2,1.3075E2,1.55E2,3.11E2,1.0125E2,3.38E2,4.442244E2,5.57E2,7.4610306E1,3.3468025E0,6.1E1,2.33E2,3.5E1,4.25E2,1.19E2,6.575E1,1.22E2,3.65E2,1.2225E2,7.809E1,1.205E2,1.0836326E2,1.16E2,7.0710677E-1,3.5770682E2,3.4698972E2,2.65E2,9.4E1,3.56E2,2.12E2,1.728E2,3.75E2,3.5775568E2,4.5379166E2,9.3E1,4.80625E2,4.57E2,5.2263E2,3.5E2,6.46E2,2.99E2,5.2075E2,-5.9397326E0,-5.4154825E0,-5.104412E0,-3.0487723E0,-4.8139057E0,-4.3791547E0,-2.9394681E0,1.5910058E0,-4.244535E0,-3.7710137E0,-3.5209153E0,-2.6243637E0,-3.6266007E0,-2.8928266E0,-2.1414487E0,-1.0798736E-1,-3.9449914E0,-2.3220992E0,-1.7527131E0,-7.3996824E-1,-1.5408205E0,-7.488635E-1,-6.006524E-1,4.1159E-1,-3.6613023E0,-1.7737807E0,-2.8575358E-1,-1.3349017E0,1.8610431E-1,1.5300786E0,1.0396613E0,2.5650425E0,5.85561E-1,1.8978058E0,-1.0569501E0,8.5217935E-1,2.0324578E0,3.1514442E0,2.7491648E0,3.7312927E0,2.9906805E0,3.1662485E-1,3.4460857E0,4.4837E0,4.095277E0,5.048694E0,6.281207E0,1.4293891E1,3.0927536E0,5.5015545E0,6.8339624E0,5.4279814E0,7.0823793E0,8.269222E0,1.139796E1,6.3611894E0,7.224106E0,9.521991E0,9.7805395E0,1.2702879E1,1.8450838E1,1.5452448E-1,1.0363386E1,1.3279216E1],"split_indices":[6,6,6,6,6,6,6,6,0,0,0,0,0,0,6,0,11,11,11,11,11,18,0,15,6,0,0,11,10,2,19,6,11,0,11,6,5,6,11,18,5,0,0,11,21,11,11,10,0,11,0,15,6,6,18,0,18,6,15,0,11,15,0,0,0,0,0,0,0,0,0,0,0,0,0,0,0,0,0,0,0,0,0,0,0,0,0,0,0,0,0,0,0,0,0,0,0,0,0,0,0,0,0,0,0,0,0,0,0,0,0,0,0,0,0,0,0,0,0,0,0,0,0,0,0,0,0],"split_type":[0,0,0,0,0,0,0,0,0,0,0,0,0,0,0,0,0,0,0,0,0,0,0,0,0,0,0,0,0,0,0,0,0,0,0,0,0,0,0,0,0,0,0,0,0,0,0,0,0,0,0,0,0,0,0,0,0,0,0,0,0,0,0,0,0,0,0,0,0,0,0,0,0,0,0,0,0,0,0,0,0,0,0,0,0,0,0,0,0,0,0,0,0,0,0,0,0,0,0,0,0,0,0,0,0,0,0,0,0,0,0,0,0,0,0,0,0,0,0,0,0,0,0,0,0,0,0],"sum_hessian":[6.68903E5,3.88656E5,2.80247E5,2.26375E5,1.62281E5,2.01586E5,7.8661E4,1.33612E5,9.2763E4,8.3505E4,7.8776E4,1.23343E5,7.8243E4,6.0302E4,1.8359E4,6.1952E4,7.166E4,5.7659E4,3.5104E4,5.6123E4,2.7382E4,4.3754E4,3.5022E4,6.1724E4,6.1619E4,5.7378E4,2.0865E4,4.2565E4,1.7737E4,1.3068E4,5.291E3,3.9421E4,2.2531E4,6.8028E4,3.632E3,2.8951E4,2.8708E4,2.1269E4,1.3835E4,3.719E4,1.8933E4,1.7119E4,1.0263E4,3.29E3,4.0464E4,2.1613E4,1.3409E4,5.0586E4,1.1138E4,3.0845E4,3.0774E4,1.3005E4,4.4373E4,1.6895E4,3.97E3,1.8972E4,2.3593E4,1.6565E4,1.172E3,7.385E3,5.683E3,2.78E2,5.013E3,1.3129E4,2.6292E4,2.171E4,8.21E2,3.2509E4,3.5519E4,3.393E3,2.39E2,1.1959E4,1.6992E4,2.1957E4,6.751E3,7.359E3,1.391E4,1.29E4,9.35E2,2.086E3,3.5104E4,1.4074E4,4.859E3,1.2642E4,4.477E3,5.61E3,4.653E3,1.04E3,2.25E3,3.0812E4,9.652E3,1.955E4,2.063E3,1.1639E4,1.77E3,1.5446E4,3.514E4,4.587E3,6.551E3,2.8844E4,2.001E3,2.3356E4,7.418E3,1.0785E4,2.22E3,3.1703E4,1.267E4,6.91E3,9.985E3,3.874E3,9.6E1,2.924E3,1.6048E4,2.0247E4,3.346E3,6.04E3,1.0525E4,9.21E2,2.51E2,4.969E3,2.416E3,5.078E3,6.05E2,2.66E2,1.2E1,3.747E3,1.266E3],"tree_param":{"num_deleted":"0","num_feature":"24","num_nodes":"127","size_leaf_vector":"1"}},{"base_weights":[-1.0548904E-1,-5.9053513E1,6.89194E1,-8.497146E1,-2.8141716E1,4.076691E1,1.2763146E2,-9.579542E1,-7.0733826E1,-4.4918858E1,-1.4186893E1,2.3921198E1,5.959173E1,1.1000618E2,1.6885329E2,-1.0357976E2,-8.88028E1,-7.537905E1,-5.607165E1,-4.9796818E1,-2.2474463E1,-2.0227783E1,9.113699E0,9.231383E0,3.7392616E1,4.829396E1,7.612144E1,9.5541565E1,1.2615189E2,1.5393533E2,2.0414467E2,-1.06910126E2,-9.600376E1,-9.062607E1,-5.2865948E1,-7.818066E1,-6.0354855E1,-6.178502E1,-3.469657E1,-5.492052E1,-3.327944E1,-2.878629E1,1.1266363E1,-3.5867027E1,-1.5455394E1,-3.3385382E0,2.5037071E1,-1.4044806E1,1.3597006E1,3.2186897E1,4.8077183E1,1.5167015E1,5.0960777E1,7.407228E1,1.2135339E2,8.2099724E1,1.1523784E2,1.2047787E2,1.5461694E2,1.513333E2,3.0580325E2,1.8826128E2,2.2628085E2,-5.7433343E0,-5.2144504E0,-4.819369E0,1.1013173E0,-4.6249933E0,-4.147942E0,-3.4733276E0,-1.3544877E0,-3.9809074E0,-2.759611E0,-3.0286357E0,1.9613766E1,-3.1389732E0,1.0869455E0,-1.8246611E0,4.437988E0,-3.3954637E0,-2.5285985E0,-1.7740978E0,-1.3157299E-1,-1.6344179E0,5.37098E-1,3.4274888E-1,2.9455237E0,-2.649253E0,-1.3785787E0,-9.217081E-1,3.615715E-1,-6.575382E-1,5.003915E-1,1.0983448E0,3.4109197E0,-1.450771E0,3.1991046E-2,1.0452563E0,-2.846742E-1,1.5313615E0,4.335586E0,2.117984E0,3.127728E0,-1.20551E0,1.2757462E0,2.8305697E0,1.6596327E0,3.2465203E0,4.094733E0,5.9406E0,2.2374136E1,2.4948034E0,4.3088202E0,5.4679418E0,7.6174483E0,6.3071094E0,4.264037E0,7.213449E0,9.226066E0,5.6239085E0,7.8419585E0,1.6437145E1,9.296091E0,8.352927E0,1.0267591E1,9.942772E0,1.25490675E1],"categories":[],"categories_nodes":[],"categories_segments":[],"categories_sizes":[],"default_left":[0,0,0,0,0,0,0,0,0,0,0,0,0,0,1,0,0,1,0,1,0,0,0,0,0,0,1,0,1,0,0,0,0,0,0,0,0,0,0,0,0,0,0,0,0,0,0,0,0,1,1,0,0,0,0,0,0,0,0,0,0,0,0,0,0,0,0,0,0,0,0,0,0,0,0,0,0,0,0,0,0,0,0,0,0,0,0,0,0,0,0,0,0,0,0,0,0,0,0,0,0,0,0,0,0,0,0,0,0,0,0,0,0,0,0,0,0,0,0,0,0,0,0,0,0,0,0],"id":9,"left_children":[1,3,5,7,9,11,13,15,17,19,21,23,25,27,29,31,33,35,37,39,41,43,45,47,49,51,53,55,57,59,61,63,65,67,69,71,73,75,77,79,81,83,85,87,89,91,93,95,97,99,101,103,105,107,109,111,113,115,117,119,121,123,125,-1,-1,-1,-1,-1,-1,-1,-1,-1,-1,-1,-1,-1,-1,-1,-1,-1,-1,-1,-1,-1,-1,-1,-1,-1,-1,-1,-1,-1,-1,-1,-1,-1,-1,-1,-1,-1,-1,-1,-1,-1,-1,-1,-1,-1,-1,-1,-1,-1,-1,-1,-1,-1,-1,-1,-1,-1,-1,-1,-1,-1,-1,-1,-1],"loss_changes":[2.7202463E9,2.888964E8,5.090075E8,3.0220032E7,3.8502136E7,6.6005984E7,7.24951E7,6.056128E6,5.765728E6,8.174608E6,1.2637426E7,2.1738164E7,1.8353504E7,1.6316224E7,1.5705408E7,1.32E6,3.841664E6,2.703072E6,2.487468E6,5.189664E6,2.840016E6,5.320808E6,3.6653195E6,5.3400615E6,3.185576E6,5.157872E6,3.689904E6,9.7552E6,5.316896E6,8.257728E6,3.078912E6,7.51584E5,7.31472E5,7.94976E5,1.2120715E6,1.787232E6,1.021212E6,1.337392E6,9.574565E5,2.640944E6,9.80452E5,1.732951E6,4.4138722E5,2.365568E6,3.691894E6,1.3586854E6,1.0739435E6,1.8246731E6,6.2385005E6,3.274132E6,1.551024E6,1.7694292E6,5.423984E6,2.724992E6,1.379042E6,2.874096E6,3.246832E6,5.481664E6,1.671328E6,4.402624E6,9.09648E5,1.840944E6,2.459264E6,0E0,0E0,0E0,0E0,0E0,0E0,0E0,0E0,0E0,0E0,0E0,0E0,0E0,0E0,0E0,0E0,0E0,0E0,0E0,0E0,0E0,0E0,0E0,0E0,0E0,0E0,0E0,0E0,0E0,0E0,0E0,0E0,0E0,0E0,0E0,0E0,0E0,0E0,0E0,0E0,0E0,0E0,0E0,0E0,0E0,0E0,0E0,0E0,0E0,0E0,0E0,0E0,0E0,0E0,0E0,0E0,0E0,0E0,0E0,0E0,0E0,0E0,0E0,0E0],"parents":[2147483647,0,0,1,1,2,2,3,3,4,4,5,5,6,6,7,7,8,8,9,9,10,10,11,11,12,12,13,13,14,14,15,15,16,16,17,17,18,18,19,19,20,20,21,21,22,22,23,23,24,24,25,25,26,26,27,27,28,28,29,29,30,30,31,31,32,32,33,33,34,34,35,35,36,36,37,37,38,38,39,39,40,40,41,41,42,42,43,43,44,44,45,45,46,46,47,47,48,48,49,49,50,50,51,51,52,52,53,53,54,54,55,55,56,56,57,57,58,58,59,59,60,60,61,61,62,62],"right_children":[2,4,6,8,10,12,14,16,18,20,22,24,26,28,30,32,34,36,38,40,42,44,46,48,50,52,54,56,58,60,62,64,66,68,70,72,74,76,78,80,82,84,86,88,90,92,94,96,98,100,102,104,106,108,110,112,114,116,118,120,122,124,126,-1,-1,-1,-1,-1,-1,-1,-1,-1,-1,-1,-1,-1,-1,-1,-1,-1,-1,-1,-1,-1,-1,-1,-1,-1,-1,-1,-1,-1,-1,-1,-1,-1,-1,-1,-1,-1,-1,-1,-1,-1,-1,-1,-1,-1,-1,-1,-1,-1,-1,-1,-1,-1,-1,-1,-1,-1,-1,-1,-1,-1,-1,-1,-1],"split_conditions":[2.5E2,1.3476596E2,3.8E2,9.9E1,1.78E2,3.185E2,4.9091086E2,7.616E1,6.123234E-17,5E-1,1.11E2,1.11E2,1.855E2,4.37E2,6.085E2,2.9E1,2.22E2,1.58E2,7.825E1,2E2,1.0975E2,4.35E1,5E-1,1.94E2,8.660254E-1,5.4E1,5.87E2,2.41E2,4.78E2,6.39E2,5.37E2,5.9625E1,3.58E2,1.18E2,5E-1,2.38E2,9.10125E2,4.31E2,2.12E2,1.21E2,3.765E2,3.7E2,6.540275E1,9.2E1,8.660254E-1,3.305E2,2.0075E2,6.36E1,1.165E2,5.67E2,2.7E2,2.55E2,1.855E2,8.660254E-1,1.1741285E2,-5E-1,4.05E2,3.6091446E1,6.885E2,3.45E2,4.48E2,7.25E2,9.022E1,-5.7433343E0,-5.2144504E0,-4.819369E0,1.1013173E0,-4.6249933E0,-4.147942E0,-3.4733276E0,-1.3544877E0,-3.9809074E0,-2.759611E0,-3.0286357E0,1.9613766E1,-3.1389732E0,1.0869455E0,-1.8246611E0,4.437988E0,-3.3954637E0,-2.5285985E0,-1.7740978E0,-1.3157299E-1,-1.6344179E0,5.37098E-1,3.4274888E-1,2.9455237E0,-2.649253E0,-1.3785787E0,-9.217081E-1,3.615715E-1,-6.575382E-1,5.003915E-1,1.0983448E0,3.4109197E0,-1.450771E0,3.1991046E-2,1.0452563E0,-2.846742E-1,1.5313615E0,4.335586E0,2.117984E0,3.127728E0,-1.20551E0,1.2757462E0,2.8305697E0,1.6596327E0,3.2465203E0,4.094733E0,5.9406E0,2.2374136E1,2.4948034E0,4.3088202E0,5.4679418E0,7.6174483E0,6.3071094E0,4.264037E0,7.213449E0,9.226066E0,5.6239085E0,7.8419585E0,1.6437145E1,9.296091E0,8.352927E0,1.0267591E1,9.942772E0,1.25490675E1],"split_indices":[6,6,6,6,6,6,6,6,23,23,0,0,0,6,1,0,11,1,0,1,0,0,23,10,23,0,1,0,1,0,10,18,11,11,23,11,1,11,0,11,1,11,19,1,23,1,0,0,15,1,1,10,15,23,19,23,0,19,1,11,1,1,2,0,0,0,0,0,0,0,0,0,0,0,0,0,0,0,0,0,0,0,0,0,0,0,0,0,0,0,0,0,0,0,0,0,0,0,0,0,0,0,0,0,0,0,0,0,0,0,0,0,0,0,0,0,0,0,0,0,0,0,0,0,0,0,0],"split_type":[0,0,0,0,0,0,0,0,0,0,0,0,0,0,0,0,0,0,0,0,0,0,0,0,0,0,0,0,0,0,0,0,0,0,0,0,0,0,0,0,0,0,0,0,0,0,0,0,0,0,0,0,0,0,0,0,0,0,0,0,0,0,0,0,0,0,0,0,0,0,0,0,0,0,0,0,0,0,0,0,0,0,0,0,0,0,0,0,0,0,0,0,0,0,0,0,0,0,0,0,0,0,0,0,0,0,0,0,0,0,0,0,0,0,0,0,0,0,0,0,0,0,0,0,0,0,0],"sum_hessian":[6.68547E5,3.60595E5,3.07952E5,1.9614E5,1.64455E5,2.08147E5,9.9805E4,1.11425E5,8.4715E4,7.4675E4,8.978E4,1.09849E5,9.8298E4,6.9915E4,2.989E4,5.2721E4,5.8704E4,6.433E4,2.0385E4,6.1342E4,1.3333E4,7.1296E4,1.8484E4,5.2549E4,5.73E4,5.8392E4,3.9906E4,3.6881E4,3.3034E4,2.1013E4,8.877E3,3.6613E4,1.6108E4,5.5868E4,2.836E3,5.4216E4,1.0114E4,1.6084E4,4.301E3,4.6817E4,1.4525E4,1.1232E4,2.101E3,1.6668E4,5.4628E4,1.0373E4,8.111E3,8.299E3,4.425E4,3.8531E4,1.8769E4,4.351E3,5.4041E4,3.8179E4,1.727E3,2.1924E4,1.4957E4,2.7548E4,5.486E3,2.0661E4,3.52E2,5.174E3,3.703E3,9.062E3,2.7551E4,1.6056E4,5.2E1,4.4887E4,1.0981E4,1.724E3,1.112E3,5.1023E4,3.193E3,1.011E4,4E0,1.5895E4,1.89E2,4.24E3,6.1E1,1.1739E4,3.5078E4,1.3551E4,9.74E2,1.0223E4,1.009E3,1.924E3,1.77E2,5.439E3,1.1229E4,4.8288E4,6.34E3,5.978E3,4.395E3,7.574E3,5.37E2,4.109E3,4.19E3,3.2092E4,1.2158E4,3.7461E4,1.07E3,1.3458E4,5.311E3,9.07E2,3.444E3,4.1E4,1.3041E4,1.7609E4,2.057E4,1.715E3,1.2E1,2.465E3,1.9459E4,1.2915E4,2.042E3,2.3727E4,3.821E3,4.08E3,1.406E3,2.567E3,1.8094E4,2.94E2,5.8E1,2.314E3,2.86E3,1.759E3,1.944E3],"tree_param":{"num_deleted":"0","num_feature":"24","num_nodes":"127","size_leaf_vector":"1"}},{"base_weights":[-5.558343E-3,-5.144575E1,7.1427574E1,-7.656266E1,-1.651186E1,4.8124542E1,1.3129076E2,-8.892702E1,-5.9664375E1,-3.1258387E1,-1.6794952E0,3.4126457E1,7.0171234E1,1.18459465E2,1.7345393E2,-9.708794E1,-8.103925E1,-6.3370556E1,-3.762544E1,-4.4677532E1,-2.413708E1,-1.5549871E1,7.9756517E0,2.4552042E1,4.49966E1,6.5734795E1,1.05177124E2,1.0919622E2,1.4476704E2,1.6043045E2,2.0585297E2,-9.99518E1,-8.822907E1,-8.227875E1,-3.4594822E1,-6.705943E1,-4.6587612E1,-6.009934E1,-3.1669E1,-5.004784E1,-2.8098536E1,-2.6822933E1,1.3794803E1,-2.1598045E1,1.1827119E1,5.680705E-1,2.1957924E1,2.8646866E1,4.4010773E0,3.7895905E1,5.4071194E1,4.8076378E1,7.070562E1,9.727031E1,1.5756714E2,8.450484E1,1.1608112E2,1.3869135E2,1.8078584E2,1.3777989E2,1.8002057E2,2.9910477E2,1.977594E2,-5.3427367E0,-4.862296E0,-4.5510283E0,-2.1596208E0,-4.2309628E0,-3.605542E0,-2.1858299E0,1.6342821E0,-3.7266185E0,-3.0572863E0,-2.4087307E0,3.063247E-1,-3.2872066E0,-1.1372483E0,-1.786732E0,9.2984766E-2,-2.6594157E0,-8.870606E-1,-1.7405351E0,3.2230544E-1,-1.6125523E0,-6.848209E-1,-1.3068522E0,1.1171474E0,-2.6618106E0,-8.9332384E-1,1.1786983E0,-1.9740163E-1,-1.7200164E-1,1.3365555E0,8.3413374E-1,1.9254221E0,8.1539726E-1,1.9750957E0,-1.0208154E0,8.3417815E-1,1.8804234E0,8.907653E0,2.5545168E0,4.0683646E0,2.707355E0,1.994612E-1,3.29011E0,4.3555293E0,4.754623E0,1.0715774E1,1.1560652E1,7.102802E0,3.4457834E0,5.408809E0,5.056315E0,6.1127305E0,6.263419E0,7.54186E0,8.545084E0,1.2430621E1,1.165732E1,6.709156E0,9.70271E0,7.526372E0,-6.707086E0,1.5341443E1,8.745434E0,1.12272835E1],"categories":[],"categories_nodes":[],"categories_segments":[],"categories_sizes":[],"default_left":[0,0,0,0,0,0,0,0,0,0,0,0,1,0,0,0,0,1,0,0,0,0,0,0,0,0,0,0,1,1,0,0,0,1,0,0,0,0,0,0,0,1,1,0,0,1,0,0,0,1,1,0,0,0,1,1,0,0,0,0,0,0,0,0,0,0,0,0,0,0,0,0,0,0,0,0,0,0,0,0,0,0,0,0,0,0,0,0,0,0,0,0,0,0,0,0,0,0,0,0,0,0,0,0,0,0,0,0,0,0,0,0,0,0,0,0,0,0,0,0,0,0,0,0,0,0,0],"id":10,"left_children":[1,3,5,7,9,11,13,15,17,19,21,23,25,27,29,31,33,35,37,39,41,43,45,47,49,51,53,55,57,59,61,63,65,67,69,71,73,75,77,79,81,83,85,87,89,91,93,95,97,99,101,103,105,107,109,111,113,115,117,119,121,123,125,-1,-1,-1,-1,-1,-1,-1,-1,-1,-1,-1,-1,-1,-1,-1,-1,-1,-1,-1,-1,-1,-1,-1,-1,-1,-1,-1,-1,-1,-1,-1,-1,-1,-1,-1,-1,-1,-1,-1,-1,-1,-1,-1,-1,-1,-1,-1,-1,-1,-1,-1,-1,-1,-1,-1,-1,-1,-1,-1,-1,-1,-1,-1,-1],"loss_changes":[2.4584397E9,3.4128E8,3.9072166E8,4.7270784E7,3.558359E7,6.221773E7,4.243827E7,8.403008E6,7.806976E6,7.79476E6,1.086215E7,1.2833232E7,1.2152576E7,1.4648E7,7.692416E6,1.620352E6,3.822464E6,5.063872E6,1.840874E6,2.516664E6,5.430346E6,5.512109E6,4.953039E6,5.41028E6,3.71912E6,6.096384E6,3.632048E6,7.556256E6,3.403488E6,5.772064E6,3.900224E6,8.95872E5,1.96936E6,1.534144E6,1.062546E6,2.96048E6,1.234326E6,6.06408E5,1.483724E6,2.166296E6,1.605224E6,3.546064E6,1.203819E6,3.217954E6,1.11639E6,3.2782508E6,1.4452665E6,7.298392E6,3.3762132E6,1.299596E6,2.058392E6,4.086124E6,4.35616E6,1.930416E6,1.28426E6,3.574968E6,3.200512E6,2.167392E6,1.471296E6,2.048376E6,2.86888E6,1.436616E6,2.917088E6,0E0,0E0,0E0,0E0,0E0,0E0,0E0,0E0,0E0,0E0,0E0,0E0,0E0,0E0,0E0,0E0,0E0,0E0,0E0,0E0,0E0,0E0,0E0,0E0,0E0,0E0,0E0,0E0,0E0,0E0,0E0,0E0,0E0,0E0,0E0,0E0,0E0,0E0,0E0,0E0,0E0,0E0,0E0,0E0,0E0,0E0,0E0,0E0,0E0,0E0,0E0,0E0,0E0,0E0,0E0,0E0,0E0,0E0,0E0,0E0,0E0,0E0,0E0,0E0],"parents":[2147483647,0,0,1,1,2,2,3,3,4,4,5,5,6,6,7,7,8,8,9,9,10,10,11,11,12,12,13,13,14,14,15,15,16,16,17,17,18,18,19,19,20,20,21,21,22,22,23,23,24,24,25,25,26,26,27,27,28,28,29,29,30,30,31,31,32,32,33,33,34,34,35,35,36,36,37,37,38,38,39,39,40,40,41,41,42,42,43,43,44,44,45,45,46,46,47,47,48,48,49,49,50,50,51,51,52,52,53,53,54,54,55,55,56,56,57,57,58,58,59,59,60,60,61,61,62,62],"right_children":[2,4,6,8,10,12,14,16,18,20,22,24,26,28,30,32,34,36,38,40,42,44,46,48,50,52,54,56,58,60,62,64,66,68,70,72,74,76,78,80,82,84,86,88,90,92,94,96,98,100,102,104,106,108,110,112,114,116,118,120,122,124,126,-1,-1,-1,-1,-1,-1,-1,-1,-1,-1,-1,-1,-1,-1,-1,-1,-1,-1,-1,-1,-1,-1,-1,-1,-1,-1,-1,-1,-1,-1,-1,-1,-1,-1,-1,-1,-1,-1,-1,-1,-1,-1,-1,-1,-1,-1,-1,-1,-1,-1,-1,-1,-1,-1,-1,-1,-1,-1,-1,-1,-1,-1,-1,-1],"split_conditions":[2.78E2,1.52E2,4.06E2,1.06E2,2.02E2,3.3976923E2,5.22E2,8.2E1,5E-1,1.43E2,1.885E2,1.3939285E2,4.6E2,3.3742966E2,6.47E2,1.03E2,3.01E2,1.75E2,3.95E1,7.809E1,8.660254E-1,8.660254E-1,5E-1,1.635E2,3.15E2,1.1625E2,7.25E2,3.54E2,6.555E2,5.1E2,1.16E2,6.1E1,5E-1,1.07E2,4.31E2,-2.4492937E-16,3.7E2,7.433E1,3.52E2,8.660254E-1,2.94E2,2.37E2,5.5E-1,1.35E2,1.0725E2,3.87E2,1.43E2,5E-1,9.1E1,9.10125E2,4.4E2,2.2E2,1E0,5.8E2,1.12E0,3.92E2,4.47E2,4.9091086E2,5.8E2,9.225E1,1.2246469E-16,7.3581764E-6,7.907E1,-5.3427367E0,-4.862296E0,-4.5510283E0,-2.1596208E0,-4.2309628E0,-3.605542E0,-2.1858299E0,1.6342821E0,-3.7266185E0,-3.0572863E0,-2.4087307E0,3.063247E-1,-3.2872066E0,-1.1372483E0,-1.786732E0,9.2984766E-2,-2.6594157E0,-8.870606E-1,-1.7405351E0,3.2230544E-1,-1.6125523E0,-6.848209E-1,-1.3068522E0,1.1171474E0,-2.6618106E0,-8.9332384E-1,1.1786983E0,-1.9740163E-1,-1.7200164E-1,1.3365555E0,8.3413374E-1,1.9254221E0,8.1539726E-1,1.9750957E0,-1.0208154E0,8.3417815E-1,1.8804234E0,8.907653E0,2.5545168E0,4.0683646E0,2.707355E0,1.994612E-1,3.29011E0,4.3555293E0,4.754623E0,1.0715774E1,1.1560652E1,7.102802E0,3.4457834E0,5.408809E0,5.056315E0,6.1127305E0,6.263419E0,7.54186E0,8.545084E0,1.2430621E1,1.165732E1,6.709156E0,9.70271E0,7.526372E0,-6.707086E0,1.5341443E1,8.745434E0,1.12272835E1],"split_indices":[6,6,6,6,6,6,6,6,23,1,1,12,1,12,6,11,11,1,12,5,23,23,23,15,6,12,1,11,1,1,1,6,23,1,11,22,1,5,11,23,11,1,5,10,15,1,12,23,12,1,1,15,23,10,4,1,6,10,10,1,22,19,2,0,0,0,0,0,0,0,0,0,0,0,0,0,0,0,0,0,0,0,0,0,0,0,0,0,0,0,0,0,0,0,0,0,0,0,0,0,0,0,0,0,0,0,0,0,0,0,0,0,0,0,0,0,0,0,0,0,0,0,0,0,0,0,0],"split_type":[0,0,0,0,0,0,0,0,0,0,0,0,0,0,0,0,0,0,0,0,0,0,0,0,0,0,0,0,0,0,0,0,0,0,0,0,0,0,0,0,0,0,0,0,0,0,0,0,0,0,0,0,0,0,0,0,0,0,0,0,0,0,0,0,0,0,0,0,0,0,0,0,0,0,0,0,0,0,0,0,0,0,0,0,0,0,0,0,0,0,0,0,0,0,0,0,0,0,0,0,0,0,0,0,0,0,0,0,0,0,0,0,0,0,0,0,0,0,0,0,0,0,0,0,0,0,0],"sum_hessian":[6.69046E5,3.88954E5,2.80092E5,2.26269E5,1.62685E5,2.01612E5,7.848E4,1.30661E5,9.5608E4,8.1578E4,8.1107E4,1.23317E5,7.8295E4,6.0172E4,1.8308E4,6.4213E4,6.6448E4,8.1843E4,1.3765E4,2.8281E4,5.3297E4,3.3287E4,4.782E4,6.5568E4,5.7749E4,6.9491E4,8.804E3,4.4506E4,1.5666E4,1.3063E4,5.245E3,4.8518E4,1.5695E4,6.472E4,1.728E3,6.7093E4,1.475E4,2.882E3,1.0883E4,2.136E4,6.921E3,4.9773E4,3.524E3,2.7264E4,6.023E3,3.126E4,1.656E4,5.4494E4,1.1074E4,3.2401E4,2.5348E4,1.5267E4,5.4224E4,7.652E3,1.152E3,9.707E3,3.4799E4,1.3409E4,2.257E3,6.062E3,7.001E3,4.16E2,4.829E3,1.3652E4,3.4866E4,1.4778E4,9.17E2,5.2604E4,1.2116E4,1.522E3,2.06E2,2.9634E4,3.7459E4,1.4319E4,4.31E2,2.503E3,3.79E2,9.706E3,1.177E3,1.9467E4,1.893E3,5.795E3,1.126E3,3.5211E4,1.4562E4,6.21E2,2.903E3,2.875E3,2.4389E4,3.452E3,2.571E3,2.7108E4,4.152E3,1.2559E4,4.001E3,2.5505E4,2.8989E4,3.666E3,7.408E3,3.2336E4,6.5E1,2.2855E4,2.493E3,1.3419E4,1.848E3,4.175E4,1.2474E4,7.514E3,1.38E2,1.98E2,9.54E2,5.855E3,3.852E3,1.0173E4,2.4626E4,6.375E3,7.034E3,1.973E3,2.84E2,2.18E2,5.844E3,4.74E3,2.261E3,7E0,4.09E2,2.61E3,2.219E3],"tree_param":{"num_deleted":"0","num_feature":"24","num_nodes":"127","size_leaf_vector":"1"}},{"base_weights":[7.8315325E-3,-5.3268883E1,6.227911E1,-7.822932E1,-2.7098322E1,3.6787346E1,1.15436134E2,-8.8586716E1,-6.77561E1,-4.2600903E1,-1.3202822E1,2.1685698E1,5.362873E1,9.971755E1,1.5210759E2,-8.9596985E1,-5.2161087E1,-7.242488E1,-5.4958374E1,-4.6900734E1,-2.2007542E1,-1.9927067E1,2.6677024E0,8.949782E0,3.1199722E1,4.4529026E1,6.797296E1,8.45499E1,1.1221814E2,1.3984138E2,1.867069E2,-9.413196E1,-8.350383E1,-6.84706E1,-2.3449928E1,-7.682905E1,-6.4576225E1,-6.0424732E1,-3.541157E1,-5.119869E1,-3.1400675E1,-2.6249273E1,1.811662E1,-4.1778233E1,-1.3990993E1,-5.3484426E0,1.8442926E1,4.254778E0,3.072501E1,2.167169E1,3.787538E1,5.5888893E1,3.507654E1,6.574665E1,1.2318346E2,7.78386E1,1.1777447E2,1.0745682E2,1.4487793E2,1.2924606E2,1.6550185E2,2.7569186E2,1.8092073E2,-5.2278914E0,-4.6164794E0,-4.187025E0,-1.121046E0,-3.4589875E0,1.1562257E1,-3.5718553E0,-8.766233E-2,-3.8462663E0,4.269865E0,-3.2329564E0,1.7441359E1,-3.1707985E0,-1.8935162E0,-1.9587272E0,2.020106E0,-3.0838177E0,-2.2967086E0,-1.6526111E0,1.8796636E-1,-1.5123187E0,8.2542226E-2,4.8267646E0,4.2213146E-2,-2.1752512E0,1.6714598E0,-1.1415647E0,-1.2231689E-1,-6.772533E-1,2.5687674E-1,4.7324237E-1,1.920117E0,-6.583962E-1,4.5931822E-1,3.144734E-1,1.7405491E0,7.355481E-1,1.8303136E0,1.8641322E0,5.063194E0,1.230593E0,2.9365356E0,8.673361E-1,2.12304E0,2.8219602E0,3.8472173E0,2.1102629E1,5.856682E0,-7.016716E-1,3.9806175E0,5.6762366E0,1.1711865E1,3.9999318E0,5.681504E0,6.6441684E0,8.819884E0,4.3352857E0,6.751203E0,8.8910885E0,7.0774035E0,-1.9741986E0,1.4300516E1,8.079786E0,1.0171947E1],"categories":[],"categories_nodes":[],"categories_segments":[],"categories_sizes":[],"default_left":[0,0,0,0,0,0,0,0,0,0,0,0,1,0,0,0,0,1,0,1,0,0,1,0,0,0,0,1,1,1,0,0,1,1,0,0,0,1,0,0,0,0,0,1,0,0,0,0,0,0,1,0,0,0,0,0,0,0,0,0,0,0,0,0,0,0,0,0,0,0,0,0,0,0,0,0,0,0,0,0,0,0,0,0,0,0,0,0,0,0,0,0,0,0,0,0,0,0,0,0,0,0,0,0,0,0,0,0,0,0,0,0,0,0,0,0,0,0,0,0,0,0,0,0,0,0,0],"id":11,"left_children":[1,3,5,7,9,11,13,15,17,19,21,23,25,27,29,31,33,35,37,39,41,43,45,47,49,51,53,55,57,59,61,63,65,67,69,71,73,75,77,79,81,83,85,87,89,91,93,95,97,99,101,103,105,107,109,111,113,115,117,119,121,123,125,-1,-1,-1,-1,-1,-1,-1,-1,-1,-1,-1,-1,-1,-1,-1,-1,-1,-1,-1,-1,-1,-1,-1,-1,-1,-1,-1,-1,-1,-1,-1,-1,-1,-1,-1,-1,-1,-1,-1,-1,-1,-1,-1,-1,-1,-1,-1,-1,-1,-1,-1,-1,-1,-1,-1,-1,-1,-1,-1,-1,-1,-1,-1,-1],"loss_changes":[2.2184689E9,2.3540442E8,4.177911E8,2.0002432E7,3.789631E7,5.2998976E7,5.758861E7,3.407936E6,5.476096E6,7.361984E6,9.900429E6,1.3312772E7,1.285648E7,1.3253888E7,1.2697856E7,2.48544E6,1.1713975E6,2.317856E6,2.617816E6,4.581008E6,2.445341E6,8.45172E6,3.4915622E6,4.803064E6,3.999356E6,6.471056E6,4.691952E6,7.039008E6,5.947264E6,5.997536E6,3.988864E6,9.62304E5,5.54848E5,3.55432E5,9.462914E5,6.78752E5,8.50504E5,1.29024E6,1.5309945E6,2.967744E6,8.67433E5,1.448911E6,1.8609674E6,1.809206E6,5.229816E6,1.5736349E6,1.6667082E6,3.3209892E6,8.317715E5,2.693158E6,1.385628E6,2.43192E6,4.307372E6,3.826656E6,2.628364E6,4.286912E6,2.60152E6,5.664288E6,1.820008E6,3.840672E6,1.882992E6,1.562556E6,3.173424E6,0E0,0E0,0E0,0E0,0E0,0E0,0E0,0E0,0E0,0E0,0E0,0E0,0E0,0E0,0E0,0E0,0E0,0E0,0E0,0E0,0E0,0E0,0E0,0E0,0E0,0E0,0E0,0E0,0E0,0E0,0E0,0E0,0E0,0E0,0E0,0E0,0E0,0E0,0E0,0E0,0E0,0E0,0E0,0E0,0E0,0E0,0E0,0E0,0E0,0E0,0E0,0E0,0E0,0E0,0E0,0E0,0E0,0E0,0E0,0E0,0E0,0E0,0E0,0E0],"parents":[2147483647,0,0,1,1,2,2,3,3,4,4,5,5,6,6,7,7,8,8,9,9,10,10,11,11,12,12,13,13,14,14,15,15,16,16,17,17,18,18,19,19,20,20,21,21,22,22,23,23,24,24,25,25,26,26,27,27,28,28,29,29,30,30,31,31,32,32,33,33,34,34,35,35,36,36,37,37,38,38,39,39,40,40,41,41,42,42,43,43,44,44,45,45,46,46,47,47,48,48,49,49,50,50,51,51,52,52,53,53,54,54,55,55,56,56,57,57,58,58,59,59,60,60,61,61,62,62],"right_children":[2,4,6,8,10,12,14,16,18,20,22,24,26,28,30,32,34,36,38,40,42,44,46,48,50,52,54,56,58,60,62,64,66,68,70,72,74,76,78,80,82,84,86,88,90,92,94,96,98,100,102,104,106,108,110,112,114,116,118,120,122,124,126,-1,-1,-1,-1,-1,-1,-1,-1,-1,-1,-1,-1,-1,-1,-1,-1,-1,-1,-1,-1,-1,-1,-1,-1,-1,-1,-1,-1,-1,-1,-1,-1,-1,-1,-1,-1,-1,-1,-1,-1,-1,-1,-1,-1,-1,-1,-1,-1,-1,-1,-1,-1,-1,-1,-1,-1,-1,-1,-1,-1,-1,-1,-1,-1],"split_conditions":[2.5E2,1.29E2,3.8E2,9.3E1,1.76E2,3.185E2,4.9091086E2,2.4E2,1.45E2,5E-1,5E-1,1.025E2,3.065E2,4.25E2,6.1E2,7.62E1,5E-1,1.07E2,5E-1,2E2,3.7E2,-2.4492937E-16,2E2,7.907E1,3.04E2,1.2246469E-16,6.555E2,4.78E2,5.36E2,5.525E2,9.225E1,5.2E1,2.35E2,3.87E2,1.2246469E-16,2.76E2,9.10125E2,1.69E2,4.38E2,-2.4492937E-16,4.2E2,1.0975E2,-2.4492937E-16,4.33E2,2.33E2,8.660254E-1,8.660254E-1,2.1E2,1.8081818E2,8.660254E-1,6.555E2,6.123234E-17,3.05E2,8.660254E-1,1.83E0,-8.660254E-1,6.1E2,3.67E2,4.74E2,3.45E2,1.2246469E-16,5E-1,7.907E1,-5.2278914E0,-4.6164794E0,-4.187025E0,-1.121046E0,-3.4589875E0,1.1562257E1,-3.5718553E0,-8.766233E-2,-3.8462663E0,4.269865E0,-3.2329564E0,1.7441359E1,-3.1707985E0,-1.8935162E0,-1.9587272E0,2.020106E0,-3.0838177E0,-2.2967086E0,-1.6526111E0,1.8796636E-1,-1.5123187E0,8.2542226E-2,4.8267646E0,4.2213146E-2,-2.1752512E0,1.6714598E0,-1.1415647E0,-1.2231689E-1,-6.772533E-1,2.5687674E-1,4.7324237E-1,1.920117E0,-6.583962E-1,4.5931822E-1,3.144734E-1,1.7405491E0,7.355481E-1,1.8303136E0,1.8641322E0,5.063194E0,1.230593E0,2.9365356E0,8.673361E-1,2.12304E0,2.8219602E0,3.8472173E0,2.1102629E1,5.856682E0,-7.016716E-1,3.9806175E0,5.6762366E0,1.1711865E1,3.9999318E0,5.681504E0,6.6441684E0,8.819884E0,4.3352857E0,6.751203E0,8.8910885E0,7.0774035E0,-1.9741986E0,1.4300516E1,8.079786E0,1.0171947E1],"split_indices":[6,6,6,6,6,6,6,11,11,23,23,12,1,6,6,6,23,1,23,1,11,22,1,2,6,22,1,1,1,1,1,6,1,1,22,12,1,1,11,22,1,12,22,1,1,23,23,10,11,23,1,23,11,23,2,23,10,11,10,11,22,23,2,0,0,0,0,0,0,0,0,0,0,0,0,0,0,0,0,0,0,0,0,0,0,0,0,0,0,0,0,0,0,0,0,0,0,0,0,0,0,0,0,0,0,0,0,0,0,0,0,0,0,0,0,0,0,0,0,0,0,0,0,0,0,0,0],"split_type":[0,0,0,0,0,0,0,0,0,0,0,0,0,0,0,0,0,0,0,0,0,0,0,0,0,0,0,0,0,0,0,0,0,0,0,0,0,0,0,0,0,0,0,0,0,0,0,0,0,0,0,0,0,0,0,0,0,0,0,0,0,0,0,0,0,0,0,0,0,0,0,0,0,0,0,0,0,0,0,0,0,0,0,0,0,0,0,0,0,0,0,0,0,0,0,0,0,0,0,0,0,0,0,0,0,0,0,0,0,0,0,0,0,0,0,0,0,0,0,0,0,0,0,0,0,0,0],"sum_hessian":[6.68693E5,3.60373E5,3.0832E5,1.8445E5,1.75923E5,2.08388E5,9.9932E4,9.2734E4,9.1716E4,8.3152E4,9.2771E4,1.0987E5,9.8518E4,6.9952E4,2.998E4,9.023E4,2.504E3,6.7197E4,2.4519E4,6.8788E4,1.4364E4,6.5162E4,2.7609E4,4.6981E4,6.2889E4,6.0281E4,3.8237E4,3.1608E4,3.8344E4,2.2137E4,7.843E3,5.1721E4,3.8509E4,1.596E3,9.08E2,4.3038E4,2.4159E4,1.9159E4,5.36E3,5.3853E4,1.4935E4,1.2991E4,1.373E3,1.3919E4,5.1243E4,1.8307E4,9.302E3,3.8649E4,8.332E3,2.5911E4,3.6978E4,2.7376E4,3.2905E4,3.6757E4,1.48E3,2.6299E4,5.309E3,3.3469E4,4.875E3,1.5672E4,6.465E3,4.76E2,7.367E3,7.615E3,4.4106E4,3.836E4,1.49E2,1.593E3,3E0,2.82E2,6.26E2,4.3013E4,2.5E1,2.4155E4,4E0,1.6914E4,2.245E3,5.107E3,2.53E2,1.8006E4,3.5847E4,1.4265E4,6.7E2,1.1363E4,1.628E3,2.47E2,1.126E3,1.3607E4,3.12E2,2.902E4,2.2223E4,1.0275E4,8.032E3,6.417E3,2.885E3,8.526E3,3.0123E4,1.194E3,7.138E3,1.7675E4,8.236E3,3.6637E4,3.41E2,2.281E3,2.5095E4,9.676E3,2.3229E4,2.0076E4,1.6681E4,2.8E1,1.452E3,4.98E2,2.5801E4,5.124E3,1.85E2,6.146E3,2.7323E4,3.535E3,1.34E3,1.876E3,1.3796E4,4.265E3,2.2E3,1.5E1,4.61E2,3.969E3,3.398E3],"tree_param":{"num_deleted":"0","num_feature":"24","num_nodes":"127","size_leaf_vector":"1"}},{"base_weights":[3.0473946E-2,-5.0094116E1,5.865041E1,-7.394452E1,-2.5545456E1,3.5455418E1,1.09313065E2,-8.241315E1,-6.2491646E1,-3.9921787E1,-1.1922421E1,1.8811571E1,5.2612896E1,9.71584E1,1.5163235E2,-8.829645E1,-7.557033E1,-6.63706E1,-4.4290447E1,-4.552883E1,-2.0719912E1,-1.874272E1,1.006611E1,6.598349E0,2.9592096E1,3.891779E1,6.3854275E1,7.5930824E1,1.121969E2,1.2941025E2,1.745905E2,-9.1838455E1,-8.1963264E1,-7.745489E1,-5.116443E1,-7.0787224E1,-5.8528835E1,-5.4892883E1,-2.8908787E1,-5.3717827E1,-3.8226395E1,-2.9404799E1,-8.3480144E-1,-3.0663862E1,-1.253282E1,-1.2941362E0,2.42064E1,2.1499033E0,2.4112068E1,5.416789E0,3.3621284E1,3.696582E1,7.2232666E1,5.7240135E1,7.990703E1,5.5845486E1,8.6639404E1,7.5992256E1,1.1631307E2,1.1688781E2,1.611238E2,1.6880244E2,2.1652835E2,-4.9030128E0,-4.4525466E0,-4.1332474E0,-1.5087849E0,-3.9836297E0,-3.4787776E0,-2.7991557E0,1.484604E0,-3.6424966E0,-2.5198915E0,-2.9340317E0,1.3284912E1,-2.8023283E0,1.3542883E0,-1.5801514E0,2.7755911E0,-2.9562767E0,-1.8085597E0,-2.1174772E0,-1.36994E0,-1.7317644E0,-4.52265E-1,-3.9057207E-1,2.1032915E0,-1.9095057E0,-1.9338267E-1,-7.8252864E-1,3.0472404E-1,-4.1604096E-1,9.372878E-1,1.0721167E0,4.308376E0,-1.3286644E-1,9.392497E-1,-1.9282067E-1,1.4570187E0,-2.7005017E-1,1.5626149E0,1.6259623E0,6.2234592E0,1.6133149E0,2.332884E0,3.289354E0,7.3607545E0,3.1824021E0,2.4418807E0,3.7176168E0,5.464699E0,3.1830306E0,1.007018E0,4.7489004E0,3.6212194E0,3.5531037E0,1.2195541E1,5.526191E0,6.8448725E0,6.1658773E0,3.148342E0,8.330935E0,5.5486374E0,9.04547E0,7.0490494E0,1.5796313E1,1.0126329E1],"categories":[],"categories_nodes":[],"categories_segments":[],"categories_sizes":[],"default_left":[0,0,0,0,0,0,1,0,0,0,0,0,0,0,0,0,0,1,0,1,0,0,0,0,0,1,0,0,0,0,0,0,0,1,0,0,0,1,0,1,0,0,0,0,1,1,0,1,0,1,1,0,0,0,0,0,0,0,0,0,0,0,0,0,0,0,0,0,0,0,0,0,0,0,0,0,0,0,0,0,0,0,0,0,0,0,0,0,0,0,0,0,0,0,0,0,0,0,0,0,0,0,0,0,0,0,0,0,0,0,0,0,0,0,0,0,0,0,0,0,0,0,0,0,0,0,0],"id":12,"left_children":[1,3,5,7,9,11,13,15,17,19,21,23,25,27,29,31,33,35,37,39,41,43,45,47,49,51,53,55,57,59,61,63,65,67,69,71,73,75,77,79,81,83,85,87,89,91,93,95,97,99,101,103,105,107,109,111,113,115,117,119,121,123,125,-1,-1,-1,-1,-1,-1,-1,-1,-1,-1,-1,-1,-1,-1,-1,-1,-1,-1,-1,-1,-1,-1,-1,-1,-1,-1,-1,-1,-1,-1,-1,-1,-1,-1,-1,-1,-1,-1,-1,-1,-1,-1,-1,-1,-1,-1,-1,-1,-1,-1,-1,-1,-1,-1,-1,-1,-1,-1,-1,-1,-1,-1,-1,-1],"loss_changes":[1.9673153E9,2.113175E8,3.626594E8,1.77504E7,3.4833264E7,6.0452864E7,4.9839104E7,4.23008E6,5.491616E6,9.316144E6,1.3695899E7,1.4148388E7,1.604544E7,2.4028992E7,1.1009504E7,1.261728E6,2.234144E6,2.217696E6,2.228576E6,4.0032E6,3.377985E6,5.15974E6,3.4731675E6,3.9252288E6,5.559508E6,3.053328E6,6.073632E6,6.711632E6,6.558912E6,4.346416E6,2.54448E6,6.20448E5,7.35328E5,7.83744E5,1.361833E6,1.72208E6,1.153464E6,7.67028E5,1.2713785E6,2.993432E6,1.579628E6,1.449445E6,1.7802791E6,4.814442E6,2.661804E6,1.6885152E6,1.6477735E6,3.2131138E6,1.435283E6,2.2793542E6,4.894036E6,2.02056E6,1.246911E6,2.18E6,2.718232E6,3.029652E6,2.407168E6,3.709738E6,4.700448E6,2.7256E6,8.38272E5,3.123232E6,1.7258E6,0E0,0E0,0E0,0E0,0E0,0E0,0E0,0E0,0E0,0E0,0E0,0E0,0E0,0E0,0E0,0E0,0E0,0E0,0E0,0E0,0E0,0E0,0E0,0E0,0E0,0E0,0E0,0E0,0E0,0E0,0E0,0E0,0E0,0E0,0E0,0E0,0E0,0E0,0E0,0E0,0E0,0E0,0E0,0E0,0E0,0E0,0E0,0E0,0E0,0E0,0E0,0E0,0E0,0E0,0E0,0E0,0E0,0E0,0E0,0E0,0E0,0E0,0E0,0E0],"parents":[2147483647,0,0,1,1,2,2,3,3,4,4,5,5,6,6,7,7,8,8,9,9,10,10,11,11,12,12,13,13,14,14,15,15,16,16,17,17,18,18,19,19,20,20,21,21,22,22,23,23,24,24,25,25,26,26,27,27,28,28,29,29,30,30,31,31,32,32,33,33,34,34,35,35,36,36,37,37,38,38,39,39,40,40,41,41,42,42,43,43,44,44,45,45,46,46,47,47,48,48,49,49,50,50,51,51,52,52,53,53,54,54,55,55,56,56,57,57,58,58,59,59,60,60,61,61,62,62],"right_children":[2,4,6,8,10,12,14,16,18,20,22,24,26,28,30,32,34,36,38,40,42,44,46,48,50,52,54,56,58,60,62,64,66,68,70,72,74,76,78,80,82,84,86,88,90,92,94,96,98,100,102,104,106,108,110,112,114,116,118,120,122,124,126,-1,-1,-1,-1,-1,-1,-1,-1,-1,-1,-1,-1,-1,-1,-1,-1,-1,-1,-1,-1,-1,-1,-1,-1,-1,-1,-1,-1,-1,-1,-1,-1,-1,-1,-1,-1,-1,-1,-1,-1,-1,-1,-1,-1,-1,-1,-1,-1,-1,-1,-1,-1,-1,-1,-1,-1,-1,-1,-1,-1,-1,-1,-1,-1],"split_conditions":[2.4883333E2,1.2833333E2,3.8333334E2,9.8041664E1,1.7683333E2,1.3925E2,5.1E2,8.05E1,6.7E1,8.35E1,1.06E2,3.0533334E2,3.2233334E2,4.435E2,4.65E2,2.9E1,7.583E1,9.975E1,1.42E2,1.23388794E2,5E-1,1.43E2,5E-1,8.660254E-1,5.427E1,4.88E2,2.46E2,1.54E2,3.45E2,7.25E2,7.06E2,5.95E1,8.660254E-1,9.25E1,8.660254E-1,2.36E2,9.10125E2,3.735E2,4.31E2,6.96E1,1.95E2,3.265E2,1.485E2,9.482E1,2.86E2,3.44E2,2.32E2,2.575E2,1.1225E2,8.94E1,5.67E2,8.660254E-1,8.3709E2,5E-1,3.5E2,5.223664E1,1.2246469E-16,7.06E2,3.3742966E2,8.660254E-1,8.660254E-1,1.2246469E-16,1.5270508E1,-4.9030128E0,-4.4525466E0,-4.1332474E0,-1.5087849E0,-3.9836297E0,-3.4787776E0,-2.7991557E0,1.484604E0,-3.6424966E0,-2.5198915E0,-2.9340317E0,1.3284912E1,-2.8023283E0,1.3542883E0,-1.5801514E0,2.7755911E0,-2.9562767E0,-1.8085597E0,-2.1174772E0,-1.36994E0,-1.7317644E0,-4.52265E-1,-3.9057207E-1,2.1032915E0,-1.9095057E0,-1.9338267E-1,-7.8252864E-1,3.0472404E-1,-4.1604096E-1,9.372878E-1,1.0721167E0,4.308376E0,-1.3286644E-1,9.392497E-1,-1.9282067E-1,1.4570187E0,-2.7005017E-1,1.5626149E0,1.6259623E0,6.2234592E0,1.6133149E0,2.332884E0,3.289354E0,7.3607545E0,3.1824021E0,2.4418807E0,3.7176168E0,5.464699E0,3.1830306E0,1.007018E0,4.7489004E0,3.6212194E0,3.5531037E0,1.2195541E1,5.526191E0,6.8448725E0,6.1658773E0,3.148342E0,8.330935E0,5.5486374E0,9.04547E0,7.0490494E0,1.5796313E1,1.0126329E1],"split_indices":[17,17,17,18,17,0,1,17,0,0,0,17,17,17,10,0,0,1,11,1,23,1,23,23,0,1,0,0,11,1,8,17,23,1,23,11,1,1,11,5,11,1,0,5,1,1,0,1,1,5,1,23,1,22,0,19,22,8,0,22,22,22,19,0,0,0,0,0,0,0,0,0,0,0,0,0,0,0,0,0,0,0,0,0,0,0,0,0,0,0,0,0,0,0,0,0,0,0,0,0,0,0,0,0,0,0,0,0,0,0,0,0,0,0,0,0,0,0,0,0,0,0,0,0,0,0,0],"split_type":[0,0,0,0,0,0,0,0,0,0,0,0,0,0,0,0,0,0,0,0,0,0,0,0,0,0,0,0,0,0,0,0,0,0,0,0,0,0,0,0,0,0,0,0,0,0,0,0,0,0,0,0,0,0,0,0,0,0,0,0,0,0,0,0,0,0,0,0,0,0,0,0,0,0,0,0,0,0,0,0,0,0,0,0,0,0,0,0,0,0,0,0,0,0,0,0,0,0,0,0,0,0,0,0,0,0,0,0,0,0,0,0,0,0,0,0,0,0,0,0,0,0,0,0,0,0,0],"sum_hessian":[6.6954E5,3.60923E5,3.08617E5,1.83064E5,1.77859E5,2.11697E5,9.692E4,1.0524E5,7.7824E4,8.6536E4,9.1323E4,1.07458E5,1.04239E5,7.5297E4,2.1623E4,5.6581E4,4.8659E4,6.415E4,1.3674E4,6.6977E4,1.9559E4,6.9703E4,2.162E4,5.0382E4,5.7076E4,4.6993E4,5.7246E4,3.1226E4,4.4071E4,1.0991E4,1.0632E4,3.6278E4,2.0303E4,4.5169E4,3.49E3,4.1032E4,2.3118E4,8.093E3,5.581E3,3.1569E4,3.5408E4,1.3613E4,5.946E3,2.3872E4,4.5831E4,1.1989E4,9.631E3,4.0178E4,1.0204E4,8.154E3,4.8922E4,4.4394E4,2.599E3,4.0545E4,1.6701E4,1.0861E4,2.0365E4,4.501E3,3.957E4,7.883E3,3.108E3,9.347E3,1.285E3,1.1214E4,2.5064E4,2.0031E4,2.72E2,3.5241E4,9.928E3,3.294E3,1.96E2,3.726E4,3.772E3,2.3108E4,1E1,7.981E3,1.12E2,5.409E3,1.72E2,2.413E4,7.439E3,2.5641E4,9.767E3,1.083E4,2.783E3,5.115E3,8.31E2,1.8637E4,5.235E3,3.926E4,6.571E3,8.877E3,3.112E3,9.221E3,4.1E2,3.1171E4,9.007E3,1.555E3,8.649E3,5.748E3,2.406E3,4.8337E4,5.85E2,2.99E4,1.4494E4,2.395E3,2.04E2,2.2999E4,1.7546E4,1.4049E4,2.652E3,8.91E3,1.951E3,1.2832E4,7.533E3,4.374E3,1.27E2,3.0889E4,8.681E3,7.042E3,8.41E2,2.799E3,3.09E2,6.509E3,2.838E3,1.56E2,1.129E3],"tree_param":{"num_deleted":"0","num_feature":"24","num_nodes":"127","size_leaf_vector":"1"}},{"base_weights":[1.2590445E-2,-4.386454E1,6.1824238E1,-6.517965E1,-1.30782795E1,4.0417038E1,1.0909962E2,-7.611293E1,-5.0204697E1,-2.3486467E1,2.1125336E0,3.0238445E1,5.984255E1,9.40459E1,1.3762184E2,-8.334195E1,-6.94242E1,-5.3601295E1,-3.0242598E1,-2.8485687E1,-6.6571894E0,-1.2023663E1,1.0064751E1,2.1726969E1,3.9422802E1,5.7761444E1,1.0444827E2,8.774692E1,1.16244514E2,1.2495122E2,1.6750851E2,-8.619684E1,-7.5672264E1,-7.104596E1,-3.9338978E1,-5.7674667E1,-4.155107E1,-3.370145E1,-8.2441634E-1,-3.7277203E1,-1.9107946E1,-1.9303593E1,3.2724793E0,-1.7423979E1,1.0764981E1,6.1689663E0,3.0451551E1,2.6361263E1,3.8893528E0,2.9131847E1,4.5133446E1,4.419218E1,6.2956806E1,1.8681392E2,9.604858E1,1.0738417E2,7.5590225E1,1.2934464E2,8.980171E1,2.3613786E2,1.2193345E2,1.5942052E2,2.017742E2,-4.609016E0,-4.191343E0,-3.9037385E0,-1.7323437E0,-3.6577992E0,-3.1055868E0,-2.232181E0,1.7534802E0,-3.2288487E0,-2.6129718E0,-2.133108E0,2.649784E-1,-2.0184143E0,-9.9921095E-1,4.5916343E0,-5.236368E-1,-2.0829756E0,-9.7344476E-1,-1.6657963E0,-7.4531245E-1,-1.1216348E0,4.9650556E-1,-3.0039927E-1,1.2831057E0,-2.496387E0,-6.872398E-1,1.2822293E0,-2.9406947E-1,1.6945377E-1,1.5805321E0,1.3699133E0,3.675085E0,7.458212E-1,1.813825E0,-1.1317993E0,6.7039585E-1,1.3996942E0,5.1090107E0,2.028663E0,3.0061328E0,5.98627E-1,2.5299208E0,2.747995E0,3.5042691E0,1.7258081E1,5.6723175E0,3.6378975E0,6.0722136E0,5.3736567E0,3.6247258E0,2.0684307E0,4.140863E0,5.94419E0,7.924699E0,3.3605115E0,5.371078E0,1.5419887E1,9.077061E0,4.4393325E0,6.3506355E0,8.5105E0,6.401156E0,7.97443E0,1.0807245E1],"categories":[],"categories_nodes":[],"categories_segments":[],"categories_sizes":[],"default_left":[0,0,0,0,0,0,0,0,0,0,0,0,1,1,1,0,0,1,0,0,1,0,0,0,0,0,0,0,0,0,0,0,0,1,0,0,0,0,0,0,0,1,0,0,0,1,1,0,0,1,1,0,0,1,0,0,0,0,0,0,0,0,1,0,0,0,0,0,0,0,0,0,0,0,0,0,0,0,0,0,0,0,0,0,0,0,0,0,0,0,0,0,0,0,0,0,0,0,0,0,0,0,0,0,0,0,0,0,0,0,0,0,0,0,0,0,0,0,0,0,0,0,0,0,0,0,0],"id":13,"left_children":[1,3,5,7,9,11,13,15,17,19,21,23,25,27,29,31,33,35,37,39,41,43,45,47,49,51,53,55,57,59,61,63,65,67,69,71,73,75,77,79,81,83,85,87,89,91,93,95,97,99,101,103,105,107,109,111,113,115,117,119,121,123,125,-1,-1,-1,-1,-1,-1,-1,-1,-1,-1,-1,-1,-1,-1,-1,-1,-1,-1,-1,-1,-1,-1,-1,-1,-1,-1,-1,-1,-1,-1,-1,-1,-1,-1,-1,-1,-1,-1,-1,-1,-1,-1,-1,-1,-1,-1,-1,-1,-1,-1,-1,-1,-1,-1,-1,-1,-1,-1,-1,-1,-1,-1,-1,-1],"loss_changes":[1.8146021E9,2.5677773E8,2.811061E8,3.785235E7,2.5311216E7,3.780189E7,3.715936E7,6.456256E6,6.614416E6,7.992304E6,7.317155E6,9.806584E6,6.096192E6,7.91392E6,1.1304E7,1.39968E6,3.38432E6,4.090656E6,1.44395E6,6.037608E6,2.7323152E6,2.884113E6,3.3083185E6,5.38278E6,3.544912E6,4.425008E6,2.008474E6,1.053104E7,4.3264E6,7.019456E6,2.434672E6,6.5584E5,1.715168E6,1.237184E6,1.4039735E6,2.325936E6,1.097024E6,1.160432E6,1.3365758E6,2.949236E6,2.115247E6,8.756415E5,2.5328605E6,2.264894E6,1.1122852E6,2.4735025E6,8.76429E5,5.864924E6,3.391152E6,1.787518E6,2.650096E6,3.589424E6,2.585152E6,3.097592E6,1.564506E6,4.4608E4,6.741248E6,2.534E6,1.645518E6,2.129626E6,3.432192E6,2.419328E6,9.96144E5,0E0,0E0,0E0,0E0,0E0,0E0,0E0,0E0,0E0,0E0,0E0,0E0,0E0,0E0,0E0,0E0,0E0,0E0,0E0,0E0,0E0,0E0,0E0,0E0,0E0,0E0,0E0,0E0,0E0,0E0,0E0,0E0,0E0,0E0,0E0,0E0,0E0,0E0,0E0,0E0,0E0,0E0,0E0,0E0,0E0,0E0,0E0,0E0,0E0,0E0,0E0,0E0,0E0,0E0,0E0,0E0,0E0,0E0,0E0,0E0,0E0,0E0,0E0,0E0],"parents":[2147483647,0,0,1,1,2,2,3,3,4,4,5,5,6,6,7,7,8,8,9,9,10,10,11,11,12,12,13,13,14,14,15,15,16,16,17,17,18,18,19,19,20,20,21,21,22,22,23,23,24,24,25,25,26,26,27,27,28,28,29,29,30,30,31,31,32,32,33,33,34,34,35,35,36,36,37,37,38,38,39,39,40,40,41,41,42,42,43,43,44,44,45,45,46,46,47,47,48,48,49,49,50,50,51,51,52,52,53,53,54,54,55,55,56,56,57,57,58,58,59,59,60,60,61,61,62,62],"right_children":[2,4,6,8,10,12,14,16,18,20,22,24,26,28,30,32,34,36,38,40,42,44,46,48,50,52,54,56,58,60,62,64,66,68,70,72,74,76,78,80,82,84,86,88,90,92,94,96,98,100,102,104,106,108,110,112,114,116,118,120,122,124,126,-1,-1,-1,-1,-1,-1,-1,-1,-1,-1,-1,-1,-1,-1,-1,-1,-1,-1,-1,-1,-1,-1,-1,-1,-1,-1,-1,-1,-1,-1,-1,-1,-1,-1,-1,-1,-1,-1,-1,-1,-1,-1,-1,-1,-1,-1,-1,-1,-1,-1,-1,-1,-1,-1,-1,-1,-1,-1,-1,-1,-1,-1,-1,-1],"split_conditions":[2.81E2,1.55E2,3.94E2,1.07E2,2.19E2,3.43E2,4.9091086E2,8.2E1,5E-1,5E-1,1.78E2,1.3939285E2,5.525E2,4.52E2,6.085E2,9.9E1,2.38E2,1.6E2,3.5E2,1.885E2,1.43E2,8.660254E-1,8.660254E-1,1.54E2,5E-1,2.62E2,-8.660254E-1,1E-1,5E-1,1.2154929E-1,6.1E2,6.1E1,5E-1,1.07E2,4.25E2,-2.4492937E-16,3.7E2,1.66E2,-2.4492937E-16,9.482E1,-2.4492937E-16,8.6E1,8.660254E-1,1.36E2,1.0375E2,4.02E2,3.61E2,5E-1,8.5E1,7.25E2,3.4E2,5E-1,3.5775568E2,1.12E0,3.4126562E2,5.07E2,5E-1,4.65E2,8.660254E-1,8.660254E-1,3.5E2,5E-1,1.17E1,-4.609016E0,-4.191343E0,